{"learner":{"attributes":{"best_iteration":"426","best_score":"0.5120870834419038","scikit_learn":"{\"_estimator_type\": \"classifier\"}"},"feature_names":["education_tier","MSP","WKHP","ESR","ENG","CIT","MAR","MIG","is_latinx","has_insurance","AGEP","OCCP","race_white","race_black","race_asian","race_indigenous","race_other","race_ethnic_aggregate","SEX"],"feature_types":["int","int","float","int","int","int","int","int","int","int","int","int","int","int","int","int","int","int","int"],"gradient_booster":{"model":{"cats":{"enc":[],"feature_segments":[],"sorted_idx":[]},"gbtree_model_param":{"num_parallel_tree":"1","num_trees":"457"},"iteration_indptr":[0,1,2,3,4,5,6,7,8,9,10,11,12,13,14,15,16,17,18,19,20,21,22,23,24,25,26,27,28,29,30,31,32,33,34,35,36,37,38,39,40,41,42,43,44,45,46,47,48,49,50,51,52,53,54,55,56,57,58,59,60,61,62,63,64,65,66,67,68,69,70,71,72,73,74,75,76,77,78,79,80,81,82,83,84,85,86,87,88,89,90,91,92,93,94,95,96,97,98,99,100,101,102,103,104,105,106,107,108,109,110,111,112,113,114,115,116,117,118,119,120,121,122,123,124,125,126,127,128,129,130,131,132,133,134,135,136,137,138,139,140,141,142,143,144,145,146,147,148,149,150,151,152,153,154,155,156,157,158,159,160,161,162,163,164,165,166,167,168,169,170,171,172,173,174,175,176,177,178,179,180,181,182,183,184,185,186,187,188,189,190,191,192,193,194,195,196,197,198,199,200,201,202,203,204,205,206,207,208,209,210,211,212,213,214,215,216,217,218,219,220,221,222,223,224,225,226,227,228,229,230,231,232,233,234,235,236,237,238,239,240,241,242,243,244,245,246,247,248,249,250,251,252,253,254,255,256,257,258,259,260,261,262,263,264,265,266,267,268,269,270,271,272,273,274,275,276,277,278,279,280,281,282,283,284,285,286,287,288,289,290,291,292,293,294,295,296,297,298,299,300,301,302,303,304,305,306,307,308,309,310,311,312,313,314,315,316,317,318,319,320,321,322,323,324,325,326,327,328,329,330,331,332,333,334,335,336,337,338,339,340,341,342,343,344,345,346,347,348,349,350,351,352,353,354,355,356,357,358,359,360,361,362,363,364,365,366,367,368,369,370,371,372,373,374,375,376,377,378,379,380,381,382,383,384,385,386,387,388,389,390,391,392,393,394,395,396,397,398,399,400,401,402,403,404,405,406,407,408,409,410,411,412,413,414,415,416,417,418,419,420,421,422,423,424,425,426,427,428,429,430,431,432,433,434,435,436,437,438,439,440,441,442,443,444,445,446,447,448,449,450,451,452,453,454,455,456,457],"tree_info":[0,0,0,0,0,0,0,0,0,0,0,0,0,0,0,0,0,0,0,0,0,0,0,0,0,0,0,0,0,0,0,0,0,0,0,0,0,0,0,0,0,0,0,0,0,0,0,0,0,0,0,0,0,0,0,0,0,0,0,0,0,0,0,0,0,0,0,0,0,0,0,0,0,0,0,0,0,0,0,0,0,0,0,0,0,0,0,0,0,0,0,0,0,0,0,0,0,0,0,0,0,0,0,0,0,0,0,0,0,0,0,0,0,0,0,0,0,0,0,0,0,0,0,0,0,0,0,0,0,0,0,0,0,0,0,0,0,0,0,0,0,0,0,0,0,0,0,0,0,0,0,0,0,0,0,0,0,0,0,0,0,0,0,0,0,0,0,0,0,0,0,0,0,0,0,0,0,0,0,0,0,0,0,0,0,0,0,0,0,0,0,0,0,0,0,0,0,0,0,0,0,0,0,0,0,0,0,0,0,0,0,0,0,0,0,0,0,0,0,0,0,0,0,0,0,0,0,0,0,0,0,0,0,0,0,0,0,0,0,0,0,0,0,0,0,0,0,0,0,0,0,0,0,0,0,0,0,0,0,0,0,0,0,0,0,0,0,0,0,0,0,0,0,0,0,0,0,0,0,0,0,0,0,0,0,0,0,0,0,0,0,0,0,0,0,0,0,0,0,0,0,0,0,0,0,0,0,0,0,0,0,0,0,0,0,0,0,0,0,0,0,0,0,0,0,0,0,0,0,0,0,0,0,0,0,0,0,0,0,0,0,0,0,0,0,0,0,0,0,0,0,0,0,0,0,0,0,0,0,0,0,0,0,0,0,0,0,0,0,0,0,0,0,0,0,0,0,0,0,0,0,0,0,0,0,0,0,0,0,0,0,0,0,0,0,0,0,0,0,0,0,0,0,0,0,0,0,0,0,0,0,0,0,0,0,0,0,0,0,0,0,0,0,0,0,0,0,0,0,0,0,0,0,0,0,0,0,0,0,0,0,0,0,0,0,0,0,0,0,0,0,0,0,0,0,0,0],"trees":[{"base_weights":[-2.4663215E-5,5.170141E-1,-7.8592545E-1,-1.5003276E-1,9.397002E-1,1.687808E-2,-1.1972071E0,5.8418304E-1,-6.772395E-1,1.1819613E0,7.3009604E-1,-2.925905E-1,6.47403E-1,-7.6837504E-1,-1.4897115E0,5.9662634E-3,8.716455E-1,-8.4161866E-1,2.0075446E-1,9.4871795E-1,1.2638265E0,8.782803E-1,4.0580943E-1,-8.821418E-3,-6.706762E-1,8.751403E-1,3.0168268E-1,-1.1830851E0,-4.2875636E-1,-1.7239108E0,-1.1969109E0,5.5695677E-1,-1.8994413E-1,1.2556944E0,7.118696E-1,-5.231984E-1,-1.1201589E0,-6.7078784E-2,6.437432E-1,1.1881136E0,8.4676963E-1,9.0463394E-1,1.3889816E0,1.1598746E0,5.817543E-1,6.457733E-1,1.2265084E-1,-1.02311894E-1,6.9544923E-1,-2.8947368E-1,-9.0494406E-1,1.063611E0,5.716744E-1,4.4379926E-1,-7.186933E-2,-8.482708E-1,-1.454013E0,-5.1968294E-1,5.54371E-1,-1.7759E0,-1.2294908E0,-1.2602732E0,-1.5248227E-1,1.0477976E-1,4.175941E-2,4.583792E-2,-3.5235733E-2,1.0770819E-1,1.4590551E-1,4.061317E-2,9.271213E-2,2.1560906E-2,-7.382642E-2,2.4892705E-2,-1.14814594E-1,3.5320338E-2,-1.9683413E-2,1.1694153E-2,7.324517E-2,1.2857668E-1,9.334601E-2,9.58922E-2,7.2552696E-2,7.913347E-2,1.4068441E-1,1.4538272E-1,1.1788606E-1,1.08299434E-1,1.5418556E-1,4.3531444E-2,1.16915695E-1,7.1042776E-2,-3.2E-2,1.8745037E-2,-7.9104476E-2,2.6450276E-2,-2.0833543E-2,3.8176637E-2,8.331232E-2,-4.420982E-2,9.094702E-3,-1.2070576E-1,-5.088315E-2,8.4973484E-2,1.1849362E-1,-1.6393444E-2,6.2066436E-2,2.9851941E-2,7.673068E-2,4.437086E-2,-2.1624131E-2,-1.1024536E-1,-5.341159E-2,-1.5707617E-1,-8.957055E-2,-3.4253422E-2,-9.408889E-2,6.276151E-2,-4.761905E-2,-9.714286E-2,-1.7853424E-1,-1.5606128E-1,-9.137645E-2,-4.9647998E-2,-1.3338454E-1,-7.171315E-3,-7.936508E-2],"categories":[],"categories_nodes":[],"categories_segments":[],"categories_sizes":[],"default_left":[0,0,0,0,0,0,0,0,0,0,0,0,0,0,0,0,0,0,0,0,0,0,0,0,0,0,0,0,0,0,0,0,0,0,0,0,0,0,0,0,0,0,0,0,0,0,0,0,0,0,0,0,0,0,0,0,0,0,0,0,0,0,0,0,0,0,0,0,0,0,0,0,0,0,0,0,0,0,0,0,0,0,0,0,0,0,0,0,0,0,0,0,0,0,0,0,0,0,0,0,0,0,0,0,0,0,0,0,0,0,0,0,0,0,0,0,0,0,0,0,0,0,0,0,0,0,0],"id":0,"left_children":[1,3,5,7,9,11,13,15,17,19,21,23,25,27,29,31,33,35,37,39,41,43,45,47,49,51,53,55,57,59,61,63,65,67,69,71,73,75,77,79,81,83,85,87,89,91,93,95,97,99,101,103,105,107,109,111,113,115,117,119,121,123,125,-1,-1,-1,-1,-1,-1,-1,-1,-1,-1,-1,-1,-1,-1,-1,-1,-1,-1,-1,-1,-1,-1,-1,-1,-1,-1,-1,-1,-1,-1,-1,-1,-1,-1,-1,-1,-1,-1,-1,-1,-1,-1,-1,-1,-1,-1,-1,-1,-1,-1,-1,-1,-1,-1,-1,-1,-1,-1,-1,-1,-1,-1,-1,-1],"loss_changes":[5.7664992E4,2.4134686E4,1.8593848E4,1.2852633E4,2.6597773E3,3.7228347E3,4.669746E3,2.3066523E3,2.7894092E3,4.6285938E2,1.3496904E3,1.3730521E3,4.9428003E2,2.1265088E3,1.5159219E3,4.9765027E2,5.678838E2,1.4432236E3,3.6173892E2,1.531914E2,8.0731055E2,1.6093721E3,5.9876196E2,4.814958E2,4.8974658E2,2.1594458E2,1.3253935E2,6.154844E2,7.426251E2,3.1389453E2,6.510449E2,8.228107E1,3.5827405E2,9.729883E1,4.3056763E2,1.2073425E3,3.3295996E2,1.03724754E2,5.3597473E1,4.5663086E1,5.9603027E1,2.6350024E2,1.8000781E2,2.8873828E2,8.075552E2,2.98089E2,2.3958154E2,2.5112558E2,3.669229E1,1.2138881E2,4.060276E2,5.9569824E1,5.245517E1,8.475714E1,5.1363056E1,2.424231E2,2.4344727E2,5.6689087E2,5.3400803E1,8.276953E1,1.212301E2,5.206904E2,2.9150738E1,0E0,0E0,0E0,0E0,0E0,0E0,0E0,0E0,0E0,0E0,0E0,0E0,0E0,0E0,0E0,0E0,0E0,0E0,0E0,0E0,0E0,0E0,0E0,0E0,0E0,0E0,0E0,0E0,0E0,0E0,0E0,0E0,0E0,0E0,0E0,0E0,0E0,0E0,0E0,0E0,0E0,0E0,0E0,0E0,0E0,0E0,0E0,0E0,0E0,0E0,0E0,0E0,0E0,0E0,0E0,0E0,0E0,0E0,0E0,0E0,0E0,0E0,0E0,0E0],"parents":[2147483647,0,0,1,1,2,2,3,3,4,4,5,5,6,6,7,7,8,8,9,9,10,10,11,11,12,12,13,13,14,14,15,15,16,16,17,17,18,18,19,19,20,20,21,21,22,22,23,23,24,24,25,25,26,26,27,27,28,28,29,29,30,30,31,31,32,32,33,33,34,34,35,35,36,36,37,37,38,38,39,39,40,40,41,41,42,42,43,43,44,44,45,45,46,46,47,47,48,48,49,49,50,50,51,51,52,52,53,53,54,54,55,55,56,56,57,57,58,58,59,59,60,60,61,61,62,62],"right_children":[2,4,6,8,10,12,14,16,18,20,22,24,26,28,30,32,34,36,38,40,42,44,46,48,50,52,54,56,58,60,62,64,66,68,70,72,74,76,78,80,82,84,86,88,90,92,94,96,98,100,102,104,106,108,110,112,114,116,118,120,122,124,126,-1,-1,-1,-1,-1,-1,-1,-1,-1,-1,-1,-1,-1,-1,-1,-1,-1,-1,-1,-1,-1,-1,-1,-1,-1,-1,-1,-1,-1,-1,-1,-1,-1,-1,-1,-1,-1,-1,-1,-1,-1,-1,-1,-1,-1,-1,-1,-1,-1,-1,-1,-1,-1,-1,-1,-1,-1,-1,-1,-1,-1,-1,-1,-1],"split_conditions":[3.6E1,1E0,2E0,2E0,2E0,4E0,3E0,1E0,2E0,3E0,6.6E1,4.7E1,4.7E1,1E0,1E0,1E0,4.7E1,3E0,3E0,6.5E1,2.8E1,8E0,3E0,1E0,1E0,1E0,1E0,4.6E1,2E0,2E0,2E0,4.8E1,4.9E1,3E0,3E0,4.5E1,1E0,4.3E1,2.21E2,1E1,1E0,1E0,8E0,1E0,1E0,1.2E1,1.6E1,1E0,2E0,3E0,1E0,3E0,1.86E2,3E0,1E0,1E0,2E0,4.8E1,6.4E1,1E0,1.83E2,2.5E1,6.4E1,1.0477976E-1,4.175941E-2,4.583792E-2,-3.5235733E-2,1.0770819E-1,1.4590551E-1,4.061317E-2,9.271213E-2,2.1560906E-2,-7.382642E-2,2.4892705E-2,-1.14814594E-1,3.5320338E-2,-1.9683413E-2,1.1694153E-2,7.324517E-2,1.2857668E-1,9.334601E-2,9.58922E-2,7.2552696E-2,7.913347E-2,1.4068441E-1,1.4538272E-1,1.1788606E-1,1.08299434E-1,1.5418556E-1,4.3531444E-2,1.16915695E-1,7.1042776E-2,-3.2E-2,1.8745037E-2,-7.9104476E-2,2.6450276E-2,-2.0833543E-2,3.8176637E-2,8.331232E-2,-4.420982E-2,9.094702E-3,-1.2070576E-1,-5.088315E-2,8.4973484E-2,1.1849362E-1,-1.6393444E-2,6.2066436E-2,2.9851941E-2,7.673068E-2,4.437086E-2,-2.1624131E-2,-1.1024536E-1,-5.341159E-2,-1.5707617E-1,-8.957055E-2,-3.4253422E-2,-9.408889E-2,6.276151E-2,-4.761905E-2,-9.714286E-2,-1.7853424E-1,-1.5606128E-1,-9.137645E-2,-4.9647998E-2,-1.3338454E-1,-7.171315E-3,-7.936508E-2],"split_indices":[2,1,0,0,0,5,0,4,4,1,10,10,10,1,1,0,10,0,4,10,10,2,0,3,0,0,0,10,3,4,3,10,10,4,4,10,9,10,11,2,0,7,2,7,7,2,2,0,1,1,1,4,11,1,9,4,4,10,10,9,11,10,10,0,0,0,0,0,0,0,0,0,0,0,0,0,0,0,0,0,0,0,0,0,0,0,0,0,0,0,0,0,0,0,0,0,0,0,0,0,0,0,0,0,0,0,0,0,0,0,0,0,0,0,0,0,0,0,0,0,0,0,0,0,0,0,0],"split_type":[0,0,0,0,0,0,0,0,0,0,0,0,0,0,0,0,0,0,0,0,0,0,0,0,0,0,0,0,0,0,0,0,0,0,0,0,0,0,0,0,0,0,0,0,0,0,0,0,0,0,0,0,0,0,0,0,0,0,0,0,0,0,0,0,0,0,0,0,0,0,0,0,0,0,0,0,0,0,0,0,0,0,0,0,0,0,0,0,0,0,0,0,0,0,0,0,0,0,0,0,0,0,0,0,0,0,0,0,0,0,0,0,0,0,0,0,0,0,0,0,0,0,0,0,0,0,0],"sum_hessian":[1.4191075E5,8.559725E4,5.63135E4,3.320175E4,5.23955E4,1.9077E4,3.72365E4,1.38765E4,1.932525E4,2.430225E4,2.809325E4,1.279675E4,6.28025E3,1.5101E4,2.21355E4,4.60825E3,9.26825E3,1.627775E4,3.0475E3,6.317E3,1.798525E4,1.9281E4,8.81225E3,7.31075E3,5.486E3,3.78525E3,2.495E3,6.79775E3,8.30325E3,1.229575E4,9.83975E3,1.20825E3,3.4E3,2.721E3,6.54725E3,7.5965E3,8.68125E3,1.89975E3,1.14775E3,1.8835E3,4.4335E3,4.6495E3,1.333575E4,9.888E3,9.393E3,4.76925E3,4.043E3,6.45475E3,8.56E2,2.089E3,3.397E3,2.3335E3,1.45175E3,1.80725E3,6.8775E2,3.04225E3,3.7555E3,7.60075E3,7.025E2,1.11235E4,1.17225E3,9.27675E3,5.63E2,2.6575E2,9.425E2,6.8075E2,2.71925E3,1.452E3,1.269E3,2.70625E3,3.841E3,1.71275E3,5.88375E3,1.7375E2,8.5075E3,4.4775E2,1.452E3,1.6575E2,9.82E2,1.3585E3,5.25E2,2.2995E3,2.134E3,3.79575E3,8.5375E2,1.018625E4,3.1495E3,8.2345E3,1.6535E3,7.52E3,1.873E3,4.47025E3,2.99E2,3.776E3,2.67E2,1.447E3,5.00775E3,2.6225E2,5.9375E2,1.49075E3,5.9825E2,1.926E3,1.471E3,8.475E2,1.486E3,9.05E1,1.36125E3,1.2485E3,5.5875E2,1.5E2,5.3775E2,1.68025E3,1.362E3,3.1045E3,6.51E2,5.35175E3,2.249E3,6.5625E2,4.625E1,1.3025E2,1.099325E4,5.7025E2,6.02E2,8.1575E2,8.461E3,5.01E2,6.2E1],"tree_param":{"num_deleted":"0","num_feature":"19","num_nodes":"127","size_leaf_vector":"1"}},{"base_weights":[4.7165848E-4,4.6695054E-1,-7.09881E-1,-1.3482064E-1,8.4865636E-1,1.3064113E-2,-1.0811716E0,5.283893E-1,-6.1239374E-1,9.5266986E-1,4.3642744E-1,-2.5522992E-1,3.989824E-1,-6.9644994E-1,-1.3444915E0,4.442017E-3,7.896969E-1,-8.682124E-1,-1.4790177E-1,6.85896E-1,1.0439289E0,3.483997E-1,9.2848206E-1,-6.066384E-1,-3.2007474E-2,8.1362563E-1,2.5099048E-1,-1.0654793E0,-3.923385E-1,-1.5589474E0,-1.0780011E0,4.8686308E-1,-1.666138E-1,5.9019554E-1,9.512392E-1,-5.999382E-1,-1.1141926E0,-2.906263E-1,5.686961E-1,1.1314065E0,5.984358E-1,7.655946E-1,1.1477194E0,4.2303315E-1,-1.7642994E-1,1.0250717E0,4.5574754E-1,-1.0292058E0,-2.2903615E-1,-1.1250039E-1,7.1904E-1,5.605724E-1,9.138914E-1,1.5036635E-1,5.715058E-1,-1.2824179E0,-7.523733E-1,-4.722269E-1,5.066469E-1,-1.6053559E0,-1.1209583E0,-1.1356713E0,-1.4674182E-1,3.285503E-2,7.138783E-2,-5.3415325E-2,-9.488201E-3,1.0171198E-1,5.327042E-2,8.72501E-2,1.09823465E-1,3.658988E-2,-6.255662E-2,-1.005492E-1,-1.3662907E-1,4.1450323E-3,-5.5363853E-2,7.814291E-2,4.192799E-2,9.224688E-2,1.2099959E-1,5.0208755E-2,1.0977689E-1,8.7071955E-2,5.462854E-2,1.3749959E-1,1.0720799E-1,2.2821788E-2,6.3057E-2,-5.1540483E-2,1.2896085E-2,6.933999E-2,1.2212241E-1,6.13497E-2,-1.4296859E-2,-1.07425384E-1,-4.4160753E-2,-7.40691E-3,-6.0720302E-2,-2.7685946E-2,1.2916571E-2,6.14612E-2,1.0651417E-1,-7.707726E-2,5.762408E-2,9.696179E-2,6.2218517E-2,2.7145818E-2,-6.54513E-3,3.580178E-2,8.348759E-2,-1.3295151E-1,-6.3036256E-2,5.6974785E-3,-8.1154786E-2,-1.221694E-1,-4.1182023E-2,3.7461188E-2,9.20941E-2,-8.57161E-2,-1.6147456E-1,-1.399513E-1,-8.523766E-2,-1.2706331E-2,-1.1808678E-1,-2.6411755E-2,1.8639168E-2],"categories":[],"categories_nodes":[],"categories_segments":[],"categories_sizes":[],"default_left":[0,0,0,0,0,0,0,0,0,0,0,0,0,0,0,0,0,0,0,0,0,0,0,0,0,0,0,0,0,0,0,0,0,0,0,0,0,0,0,0,0,0,0,0,0,0,0,0,0,0,0,0,0,0,0,0,0,0,0,0,0,0,0,0,0,0,0,0,0,0,0,0,0,0,0,0,0,0,0,0,0,0,0,0,0,0,0,0,0,0,0,0,0,0,0,0,0,0,0,0,0,0,0,0,0,0,0,0,0,0,0,0,0,0,0,0,0,0,0,0,0,0,0,0,0,0,0],"id":1,"left_children":[1,3,5,7,9,11,13,15,17,19,21,23,25,27,29,31,33,35,37,39,41,43,45,47,49,51,53,55,57,59,61,63,65,67,69,71,73,75,77,79,81,83,85,87,89,91,93,95,97,99,101,103,105,107,109,111,113,115,117,119,121,123,125,-1,-1,-1,-1,-1,-1,-1,-1,-1,-1,-1,-1,-1,-1,-1,-1,-1,-1,-1,-1,-1,-1,-1,-1,-1,-1,-1,-1,-1,-1,-1,-1,-1,-1,-1,-1,-1,-1,-1,-1,-1,-1,-1,-1,-1,-1,-1,-1,-1,-1,-1,-1,-1,-1,-1,-1,-1,-1,-1,-1,-1,-1,-1,-1],"loss_changes":[4.69722E4,1.9654285E4,1.5082465E4,1.0519004E4,2.244457E3,1.9742717E3,3.7598398E3,1.9035432E3,2.2941138E3,1.0170742E3,4.5666797E2,8.8230524E2,4.7964502E2,1.6926758E3,1.257793E3,3.8195844E2,2.984126E2,8.209297E2,7.016072E2,4.1463916E2,8.989453E2,3.5068762E2,7.261133E1,6.9695593E2,4.1598505E2,5.166394E1,1.8582278E2,4.619541E2,5.9434265E2,2.4636328E2,5.277627E2,4.33096E1,9.003715E1,1.01401E2,5.8353027E1,1.4769043E2,1.7657861E2,4.9959885E2,3.5890137E1,2.7586426E1,4.28198E2,1.9464404E2,3.8851953E2,3.1671545E2,1.1550366E2,8.555847E1,2.5902733E1,5.40979E1,1.3525586E2,2.4687952E2,2.3419495E1,1.2671448E1,2.3312988E1,1.147031E2,7.712103E1,1.2275244E2,1.3375134E2,3.4346533E2,3.661151E1,7.614844E1,8.656494E1,4.2181934E2,2.2509024E1,0E0,0E0,0E0,0E0,0E0,0E0,0E0,0E0,0E0,0E0,0E0,0E0,0E0,0E0,0E0,0E0,0E0,0E0,0E0,0E0,0E0,0E0,0E0,0E0,0E0,0E0,0E0,0E0,0E0,0E0,0E0,0E0,0E0,0E0,0E0,0E0,0E0,0E0,0E0,0E0,0E0,0E0,0E0,0E0,0E0,0E0,0E0,0E0,0E0,0E0,0E0,0E0,0E0,0E0,0E0,0E0,0E0,0E0,0E0,0E0,0E0,0E0,0E0,0E0],"parents":[2147483647,0,0,1,1,2,2,3,3,4,4,5,5,6,6,7,7,8,8,9,9,10,10,11,11,12,12,13,13,14,14,15,15,16,16,17,17,18,18,19,19,20,20,21,21,22,22,23,23,24,24,25,25,26,26,27,27,28,28,29,29,30,30,31,31,32,32,33,33,34,34,35,35,36,36,37,37,38,38,39,39,40,40,41,41,42,42,43,43,44,44,45,45,46,46,47,47,48,48,49,49,50,50,51,51,52,52,53,53,54,54,55,55,56,56,57,57,58,58,59,59,60,60,61,61,62,62],"right_children":[2,4,6,8,10,12,14,16,18,20,22,24,26,28,30,32,34,36,38,40,42,44,46,48,50,52,54,56,58,60,62,64,66,68,70,72,74,76,78,80,82,84,86,88,90,92,94,96,98,100,102,104,106,108,110,112,114,116,118,120,122,124,126,-1,-1,-1,-1,-1,-1,-1,-1,-1,-1,-1,-1,-1,-1,-1,-1,-1,-1,-1,-1,-1,-1,-1,-1,-1,-1,-1,-1,-1,-1,-1,-1,-1,-1,-1,-1,-1,-1,-1,-1,-1,-1,-1,-1,-1,-1,-1,-1,-1,-1,-1,-1,-1,-1,-1,-1,-1,-1,-1,-1,-1,-1,-1,-1],"split_conditions":[3.6E1,1E0,2E0,2E0,3E0,2E0,3E0,1E0,1E0,1E0,1E0,1E0,1E0,1E0,1E0,1E0,3E0,3E0,3E0,1E0,3E0,2.9E1,3E1,1E0,2E0,3E0,4E0,1E0,2E0,2E0,2E0,2E0,1E0,1E0,4E0,1E0,7E0,3E0,1E0,1E0,1E0,2E0,1E0,4E0,1.83E2,5E0,4E0,2E0,1E0,1E0,2E0,5.4E1,3E0,1E0,1E0,2E0,1E0,7.1E1,2E0,1E0,1.83E2,1E0,1E0,3.285503E-2,7.138783E-2,-5.3415325E-2,-9.488201E-3,1.0171198E-1,5.327042E-2,8.72501E-2,1.09823465E-1,3.658988E-2,-6.255662E-2,-1.005492E-1,-1.3662907E-1,4.1450323E-3,-5.5363853E-2,7.814291E-2,4.192799E-2,9.224688E-2,1.2099959E-1,5.0208755E-2,1.0977689E-1,8.7071955E-2,5.462854E-2,1.3749959E-1,1.0720799E-1,2.2821788E-2,6.3057E-2,-5.1540483E-2,1.2896085E-2,6.933999E-2,1.2212241E-1,6.13497E-2,-1.4296859E-2,-1.07425384E-1,-4.4160753E-2,-7.40691E-3,-6.0720302E-2,-2.7685946E-2,1.2916571E-2,6.14612E-2,1.0651417E-1,-7.707726E-2,5.762408E-2,9.696179E-2,6.2218517E-2,2.7145818E-2,-6.54513E-3,3.580178E-2,8.348759E-2,-1.3295151E-1,-6.3036256E-2,5.6974785E-3,-8.1154786E-2,-1.221694E-1,-4.1182023E-2,3.7461188E-2,9.20941E-2,-8.57161E-2,-1.6147456E-1,-1.399513E-1,-8.523766E-2,-1.2706331E-2,-1.1808678E-1,-2.6411755E-2,1.8639168E-2],"split_indices":[2,1,0,0,0,4,0,4,4,3,7,1,9,1,1,0,4,0,4,0,1,2,2,8,3,4,1,4,3,4,3,17,3,9,4,9,2,0,14,8,7,0,0,1,11,1,0,3,18,18,7,11,17,0,18,3,9,11,7,9,11,9,7,0,0,0,0,0,0,0,0,0,0,0,0,0,0,0,0,0,0,0,0,0,0,0,0,0,0,0,0,0,0,0,0,0,0,0,0,0,0,0,0,0,0,0,0,0,0,0,0,0,0,0,0,0,0,0,0,0,0,0,0,0,0,0,0],"split_type":[0,0,0,0,0,0,0,0,0,0,0,0,0,0,0,0,0,0,0,0,0,0,0,0,0,0,0,0,0,0,0,0,0,0,0,0,0,0,0,0,0,0,0,0,0,0,0,0,0,0,0,0,0,0,0,0,0,0,0,0,0,0,0,0,0,0,0,0,0,0,0,0,0,0,0,0,0,0,0,0,0,0,0,0,0,0,0,0,0,0,0,0,0,0,0,0,0,0,0,0,0,0,0,0,0,0,0,0,0,0,0,0,0,0,0,0,0,0,0,0,0,0,0,0,0,0,0],"sum_hessian":[1.4175186E5,8.5563695E4,5.6188164E4,3.320912E4,5.2354574E4,1.9065816E4,3.7122348E4,1.3902495E4,1.9306625E4,4.1805027E4,1.0549546E4,1.1247079E4,7.818737E3,1.5085467E4,2.203688E4,4.626642E3,9.275854E3,1.2449307E4,6.857318E3,1.0657857E4,3.114717E4,8.950096E3,1.5994495E3,4.368399E3,6.8786797E3,2.055407E3,5.76333E3,6.814179E3,8.271288E3,1.22078545E4,9.829027E3,1.2105988E3,3.4160432E3,4.152392E3,5.1234614E3,5.9564463E3,6.49286E3,5.7188843E3,1.1384336E3,1.746989E3,8.910868E3,8.462289E3,2.268488E4,7.835974E3,1.1141218E3,1.327122E3,2.7232758E2,2.060645E3,2.307754E3,6.2135933E3,6.6508673E2,5.851589E2,1.4702482E3,4.3873984E3,1.3759316E3,4.0234177E3,2.7907617E3,7.5966826E3,6.7460504E2,1.1035853E4,1.1720018E3,9.255634E3,5.733931E2,7.146635E2,4.9593515E2,5.5677795E2,2.8592654E3,4.9083298E2,3.6615588E3,3.3408618E3,1.7825995E3,1.5362256E2,5.8028237E3,4.5401904E3,1.9526693E3,2.5279556E3,3.190929E3,4.6795184E2,6.7048175E2,4.8098315E2,1.2660057E3,7.4712637E3,1.4396047E3,5.7182827E3,2.7440066E3,5.660229E3,1.7024652E4,4.042949E3,3.7930251E3,5.277012E2,5.8642065E2,4.948762E2,8.322457E2,2.1551822E2,5.680935E1,1.9131461E3,1.4749892E2,1.6378029E3,6.6995105E2,3.6982424E3,2.5153506E3,5.130591E2,1.5202763E2,6.2459655E0,5.789129E2,1.2324762E3,2.377719E2,2.8103167E3,1.5770815E3,7.612342E2,6.1469745E2,3.7514177E3,2.719999E2,1.9014395E2,2.600618E3,5.651859E2,7.031497E3,5.1301276E2,1.6159229E2,1.3792436E2,1.0897929E4,5.732525E2,5.9874927E2,3.9712772E2,8.858506E3,4.2415445E2,1.4923872E2],"tree_param":{"num_deleted":"0","num_feature":"19","num_nodes":"127","size_leaf_vector":"1"}},{"base_weights":[-1.3697346E-3,4.2189822E-1,-6.4627516E-1,-4.49524E-2,7.724158E-1,9.798748E-3,-9.860228E-1,5.1689994E-1,-4.7026083E-1,9.834856E-1,5.9532183E-1,-2.540259E-1,5.502775E-1,-6.304345E-1,-1.2313001E0,1.2684079E-1,7.126113E-1,-7.1048373E-1,-5.39364E-2,6.673099E-1,1.0447919E0,7.171602E-1,2.8146955E-1,8.957104E-4,-5.967252E-1,7.6361316E-1,2.2730254E-1,-3.0519116E-1,-9.490072E-1,-1.4040564E0,-9.9304736E-1,6.283401E-1,-4.3874156E-2,1.0502172E0,5.5428654E-1,-4.4981146E-1,-9.5590097E-1,-1.7365174E-1,5.204867E-1,5.5801183E-1,1.1633956E0,1.1766634E0,8.0835253E-1,4.236575E-1,9.231164E-1,3.4706122E-1,-4.9226552E-1,-6.614407E-2,6.546955E-1,-2.9389393E-1,-7.829364E-1,9.2845404E-1,5.0133795E-1,3.552361E-1,-1.0623747E-1,-3.7386882E-1,4.151406E-1,-1.1439142E0,-6.4595664E-1,-1.4553502E0,-9.442198E-1,-6.949175E-2,-1.0463766E0,7.939427E-2,2.3673369E-2,4.2491816E-2,-2.157387E-2,8.1919916E-2,1.170119E-1,3.1046748E-2,7.213842E-2,9.238591E-3,-5.91559E-2,-7.988381E-2,-1.13244675E-1,1.1504947E-2,-4.1060824E-2,-4.4135763E-3,6.0376436E-2,3.2466527E-2,7.9424195E-2,1.2808791E-1,1.00219406E-1,1.259595E-1,9.806366E-2,7.334136E-2,1.1090493E-1,3.130163E-2,9.062108E-2,7.0140556E-2,1.05018415E-1,5.3089924E-2,1.2364488E-2,-2.7605632E-2,-8.3642446E-2,2.5021628E-2,-1.588519E-2,6.910374E-2,-2.9134616E-2,-4.1719463E-2,9.83817E-4,-9.768699E-2,-4.8651133E-2,8.398112E-2,1.15005076E-1,-1.0655454E-2,5.4308075E-2,2.3150899E-2,5.9046697E-2,1.1542415E-2,-4.328455E-2,9.199645E-3,-4.68789E-2,2.2253452E-2,6.756648E-2,-1.20868325E-1,-3.6098402E-2,-7.380854E-2,1.5054621E-2,-6.599171E-2,-1.4662866E-1,-1.2727152E-1,-6.494796E-2,-4.789659E-2,4.3094363E-2,-1.0980953E-1,-1.6743591E-2],"categories":[],"categories_nodes":[],"categories_segments":[],"categories_sizes":[],"default_left":[0,0,0,0,0,0,0,0,0,0,0,0,0,0,0,0,0,0,0,0,0,0,0,0,0,0,0,0,0,0,0,0,0,0,0,0,0,0,0,0,0,0,0,0,0,0,0,0,0,0,0,0,0,0,0,0,0,0,0,0,0,0,0,0,0,0,0,0,0,0,0,0,0,0,0,0,0,0,0,0,0,0,0,0,0,0,0,0,0,0,0,0,0,0,0,0,0,0,0,0,0,0,0,0,0,0,0,0,0,0,0,0,0,0,0,0,0,0,0,0,0,0,0,0,0,0,0],"id":2,"left_children":[1,3,5,7,9,11,13,15,17,19,21,23,25,27,29,31,33,35,37,39,41,43,45,47,49,51,53,55,57,59,61,63,65,67,69,71,73,75,77,79,81,83,85,87,89,91,93,95,97,99,101,103,105,107,109,111,113,115,117,119,121,123,125,-1,-1,-1,-1,-1,-1,-1,-1,-1,-1,-1,-1,-1,-1,-1,-1,-1,-1,-1,-1,-1,-1,-1,-1,-1,-1,-1,-1,-1,-1,-1,-1,-1,-1,-1,-1,-1,-1,-1,-1,-1,-1,-1,-1,-1,-1,-1,-1,-1,-1,-1,-1,-1,-1,-1,-1,-1,-1,-1,-1,-1,-1,-1,-1],"loss_changes":[3.84188E4,1.39051455E4,1.2431271E4,8.708199E3,1.8135781E3,2.7134375E3,3.2038867E3,1.1984868E3,2.0743096E3,4.2848242E2,1.00907324E3,1.1171348E3,4.2991077E2,1.5540068E3,8.935547E2,4.4923877E2,5.582383E2,8.409614E2,5.2203845E2,1.9447827E2,5.772363E2,1.1488711E3,3.7483643E2,3.2149033E2,3.073601E2,1.6203174E2,1.060484E2,3.674356E2,4.4684912E2,2.9585742E2,4.502246E2,8.6231445E1,3.1554984E2,9.146167E1,2.8982373E2,4.9037256E2,1.8691406E2,4.2978198E2,6.1589508E1,1.6240765E2,1.1003723E1,1.922539E2,1.4887158E2,4.1838647E2,3.1399023E2,2.7947925E2,4.272917E1,1.9515709E2,2.3654541E1,7.784654E1,1.9366309E2,4.4347046E1,3.6921814E1,5.213095E1,4.996797E1,2.9978882E2,3.2299995E1,2.3335449E2,2.1792737E2,9.7640625E1,1.2189136E2,1.0270056E2,3.9272754E2,0E0,0E0,0E0,0E0,0E0,0E0,0E0,0E0,0E0,0E0,0E0,0E0,0E0,0E0,0E0,0E0,0E0,0E0,0E0,0E0,0E0,0E0,0E0,0E0,0E0,0E0,0E0,0E0,0E0,0E0,0E0,0E0,0E0,0E0,0E0,0E0,0E0,0E0,0E0,0E0,0E0,0E0,0E0,0E0,0E0,0E0,0E0,0E0,0E0,0E0,0E0,0E0,0E0,0E0,0E0,0E0,0E0,0E0,0E0,0E0,0E0,0E0,0E0,0E0],"parents":[2147483647,0,0,1,1,2,2,3,3,4,4,5,5,6,6,7,7,8,8,9,9,10,10,11,11,12,12,13,13,14,14,15,15,16,16,17,17,18,18,19,19,20,20,21,21,22,22,23,23,24,24,25,25,26,26,27,27,28,28,29,29,30,30,31,31,32,32,33,33,34,34,35,35,36,36,37,37,38,38,39,39,40,40,41,41,42,42,43,43,44,44,45,45,46,46,47,47,48,48,49,49,50,50,51,51,52,52,53,53,54,54,55,55,56,56,57,57,58,58,59,59,60,60,61,61,62,62],"right_children":[2,4,6,8,10,12,14,16,18,20,22,24,26,28,30,32,34,36,38,40,42,44,46,48,50,52,54,56,58,60,62,64,66,68,70,72,74,76,78,80,82,84,86,88,90,92,94,96,98,100,102,104,106,108,110,112,114,116,118,120,122,124,126,-1,-1,-1,-1,-1,-1,-1,-1,-1,-1,-1,-1,-1,-1,-1,-1,-1,-1,-1,-1,-1,-1,-1,-1,-1,-1,-1,-1,-1,-1,-1,-1,-1,-1,-1,-1,-1,-1,-1,-1,-1,-1,-1,-1,-1,-1,-1,-1,-1,-1,-1,-1,-1,-1,-1,-1,-1,-1,-1,-1,-1,-1,-1,-1],"split_conditions":[3.6E1,1E0,2E0,2E0,2E0,4E0,3E0,1E0,1E0,2.5E1,6.8E1,4.7E1,4.7E1,4.2E1,1E0,5.1E1,4.8E1,3E0,3E0,1E0,6.7E1,1E0,7E0,2E0,1E0,1E0,1E0,2E0,1E0,2E0,2.4E1,1.4E1,1E0,3.43E2,3E0,4.7E1,6.7E1,3E0,2.2E2,1E0,1.3E1,8E0,3E0,1E0,2.9E1,3E0,2.2E1,1E0,5.28E2,2E0,1E0,4E0,1.86E2,1E0,5.5E1,2.5E1,4E0,4E0,1E0,1E0,1.83E2,1E0,2E0,7.939427E-2,2.3673369E-2,4.2491816E-2,-2.157387E-2,8.1919916E-2,1.170119E-1,3.1046748E-2,7.213842E-2,9.238591E-3,-5.91559E-2,-7.988381E-2,-1.13244675E-1,1.1504947E-2,-4.1060824E-2,-4.4135763E-3,6.0376436E-2,3.2466527E-2,7.9424195E-2,1.2808791E-1,1.00219406E-1,1.259595E-1,9.806366E-2,7.334136E-2,1.1090493E-1,3.130163E-2,9.062108E-2,7.0140556E-2,1.05018415E-1,5.3089924E-2,1.2364488E-2,-2.7605632E-2,-8.3642446E-2,2.5021628E-2,-1.588519E-2,6.910374E-2,-2.9134616E-2,-4.1719463E-2,9.83817E-4,-9.768699E-2,-4.8651133E-2,8.398112E-2,1.15005076E-1,-1.0655454E-2,5.4308075E-2,2.3150899E-2,5.9046697E-2,1.1542415E-2,-4.328455E-2,9.199645E-3,-4.68789E-2,2.2253452E-2,6.756648E-2,-1.20868325E-1,-3.6098402E-2,-7.380854E-2,1.5054621E-2,-6.599171E-2,-1.4662866E-1,-1.2727152E-1,-6.494796E-2,-4.789659E-2,4.3094363E-2,-1.0980953E-1,-1.6743591E-2],"split_indices":[2,6,0,0,0,5,0,4,4,10,10,10,10,10,6,10,10,0,4,7,10,3,2,3,0,0,0,3,6,4,10,2,0,11,4,10,10,0,11,4,2,2,6,7,10,0,2,0,11,6,6,4,11,6,10,10,3,5,3,9,11,7,3,0,0,0,0,0,0,0,0,0,0,0,0,0,0,0,0,0,0,0,0,0,0,0,0,0,0,0,0,0,0,0,0,0,0,0,0,0,0,0,0,0,0,0,0,0,0,0,0,0,0,0,0,0,0,0,0,0,0,0,0,0,0,0,0],"split_type":[0,0,0,0,0,0,0,0,0,0,0,0,0,0,0,0,0,0,0,0,0,0,0,0,0,0,0,0,0,0,0,0,0,0,0,0,0,0,0,0,0,0,0,0,0,0,0,0,0,0,0,0,0,0,0,0,0,0,0,0,0,0,0,0,0,0,0,0,0,0,0,0,0,0,0,0,0,0,0,0,0,0,0,0,0,0,0,0,0,0,0,0,0,0,0,0,0,0,0,0,0,0,0,0,0,0,0,0,0,0,0,0,0,0,0,0,0,0,0,0,0,0,0,0,0,0,0],"sum_hessian":[1.4074281E5,8.497312E4,5.5769688E4,3.643998E4,4.853314E4,1.9027453E4,3.6742234E4,1.5699711E4,2.0740268E4,2.2140457E4,2.6392686E4,1.2786494E4,6.2409595E3,1.4999882E4,2.1742354E4,5.245971E3,1.045374E4,1.3151201E4,7.5890664E3,3.5977322E3,1.8542725E4,1.9011197E4,7.381488E3,7.33285E3,5.4536436E3,3.757585E3,2.4833745E3,7.4232026E3,7.576679E3,1.2600719E4,9.141635E3,1.3315814E3,3.9143896E3,3.3355364E3,7.1182036E3,6.3787666E3,6.772435E3,6.2807876E3,1.3082792E3,2.9499265E3,6.4780566E2,1.190106E4,6.6416646E3,7.840692E3,1.1170506E4,6.805148E3,5.763399E2,6.651693E3,6.8115717E2,2.0775486E3,3.3760952E3,2.3058257E3,1.4517594E3,1.7948656E3,6.885089E2,6.777505E3,6.4569794E2,4.609381E3,2.9672983E3,1.1334243E4,1.2664758E3,4.9917804E2,8.642457E3,9.351131E2,3.9646826E2,1.049691E3,2.8646985E3,1.1423573E3,2.193179E3,2.895752E3,4.2224517E3,1.3220712E3,5.0566953E3,3.5868987E3,3.1855364E3,2.8314915E3,3.449296E3,1.6821968E2,1.1400594E3,1.4852155E3,1.464711E3,3.7069684E2,2.7710883E2,8.359184E3,3.5418757E3,5.319413E3,1.3222512E3,6.3796055E3,1.4610864E3,4.0720354E3,7.09847E3,3.7324924E3,3.0726553E3,3.5507504E2,2.2126483E2,1.5070995E3,5.1445938E3,6.5621826E2,2.493889E1,1.4774153E3,6.0013324E2,2.0394847E3,1.3366104E3,1.6504174E3,6.5540826E2,9.318408E1,1.3585753E3,1.1775043E3,6.173614E2,4.1053473E2,2.7797418E2,1.1471853E3,5.6303193E3,3.7230563E2,2.733923E2,4.256696E3,3.5268494E2,2.6597297E3,3.0756848E2,1.5455255E2,1.117969E4,5.973718E2,6.69104E2,2.7456335E2,2.2461469E2,8.161942E3,4.8051477E2],"tree_param":{"num_deleted":"0","num_feature":"19","num_nodes":"127","size_leaf_vector":"1"}},{"base_weights":[4.9723557E-4,3.8557565E-1,-5.891328E-1,-1.14546515E-1,7.0478195E-1,8.414265E-3,-9.030204E-1,4.2741293E-1,-5.059703E-1,7.939619E-1,3.552417E-1,-2.2545937E-1,4.8875645E-1,-1.1751382E0,-6.220292E-1,1.9418523E-3,6.4116913E-1,-6.3467616E-1,1.6926873E-1,5.4653287E-1,8.799835E-1,5.441453E-1,7.769335E-2,-4.4722566E-3,-5.452904E-1,6.812701E-1,1.9717684E-1,-9.032346E-1,-1.329808E0,-3.1046367E-1,-8.894467E-1,5.220839E-1,-1.20968305E-1,9.7035843E-1,4.9346393E-1,-3.9351273E-1,-8.500147E-1,-1.3636029E-2,4.7182348E-1,7.341591E-1,3.356504E-1,1.0608579E0,6.3515633E-1,7.26754E-1,8.848648E-2,1.3240218E-1,-6.359971E-1,3.0318886E-1,-9.854359E-2,-7.358414E-1,-2.7808073E-1,8.3086056E-1,4.4633913E-1,3.848556E-2,4.181724E-1,-6.500301E-1,-1.1875287E0,-1.373663E0,-9.272599E-1,-1.6949096E-1,-6.505558E-1,-2.3420244E-1,-9.555449E-1,7.044817E-2,1.24973785E-2,2.9363498E-2,-2.6745483E-2,7.433694E-2,1.0865825E-1,2.5222927E-2,6.621572E-2,1.5160963E-2,-5.8253974E-2,4.1349337E-2,-8.7488785E-2,3.8708124E-2,-1.3742517E-2,3.9621934E-2,8.263629E-2,6.604778E-2,1.2618758E-1,2.8426936E-2,8.901696E-2,1.12405255E-1,6.866775E-2,6.711287E-2,-8.0240285E-3,6.5620355E-2,1.176727E-1,2.5307147E-2,-2.8625911E-2,3.1493974E-3,4.2496353E-2,-9.5763676E-2,-3.1062115E-2,-4.483756E-2,3.6035232E-2,-8.7464504E-2,-6.6519775E-3,-1.1250295E-1,-4.666136E-2,-8.814354E-2,-2.0847004E-2,7.462738E-2,1.0428045E-1,9.271595E-3,5.1544905E-2,2.058602E-2,-4.3985646E-2,1.8238775E-2,5.6147814E-2,-8.70392E-2,-3.8930073E-2,-1.2804516E-1,-7.366445E-2,-7.3561035E-2,-1.3816245E-1,-1.1272571E-1,-5.70586E-2,-4.243852E-2,1.1199847E-2,1.9130263E-2,-7.083314E-2,-7.861932E-2,-8.147404E-3,-1.3227968E-1,-8.551369E-2],"categories":[],"categories_nodes":[],"categories_segments":[],"categories_sizes":[],"default_left":[0,0,0,0,0,0,0,0,0,0,0,0,0,0,0,0,0,0,0,0,0,0,0,0,0,0,0,0,0,0,0,0,0,0,0,0,0,0,0,0,0,0,0,0,0,0,0,0,0,0,0,0,0,0,0,0,0,0,0,0,0,0,0,0,0,0,0,0,0,0,0,0,0,0,0,0,0,0,0,0,0,0,0,0,0,0,0,0,0,0,0,0,0,0,0,0,0,0,0,0,0,0,0,0,0,0,0,0,0,0,0,0,0,0,0,0,0,0,0,0,0,0,0,0,0,0,0],"id":3,"left_children":[1,3,5,7,9,11,13,15,17,19,21,23,25,27,29,31,33,35,37,39,41,43,45,47,49,51,53,55,57,59,61,63,65,67,69,71,73,75,77,79,81,83,85,87,89,91,93,95,97,99,101,103,105,107,109,111,113,115,117,119,121,123,125,-1,-1,-1,-1,-1,-1,-1,-1,-1,-1,-1,-1,-1,-1,-1,-1,-1,-1,-1,-1,-1,-1,-1,-1,-1,-1,-1,-1,-1,-1,-1,-1,-1,-1,-1,-1,-1,-1,-1,-1,-1,-1,-1,-1,-1,-1,-1,-1,-1,-1,-1,-1,-1,-1,-1,-1,-1,-1,-1,-1,-1,-1,-1,-1],"loss_changes":[3.1637543E4,1.3456403E4,1.0325121E4,6.9667646E3,1.6035625E3,2.1299739E3,2.7588594E3,1.2525532E3,1.6573145E3,8.7200195E2,5.4840063E2,9.012614E2,3.483734E2,7.698301E2,1.4792832E3,2.9455664E2,4.452434E2,8.314121E2,1.68986E2,4.182754E2,1.3462148E3,5.178218E2,1.6553651E2,2.1831378E2,2.6509863E2,1.3103601E2,8.6622284E1,4.779746E2,2.0499219E2,3.9319543E2,4.136289E2,6.3698746E1,2.2642136E2,7.406738E1,2.574193E2,7.787732E2,2.6624463E2,9.450246E1,3.0511414E1,2.1677637E2,1.4169177E2,4.128203E2,3.32688E2,1.4028052E2,1.0997198E2,1.1620187E2,3.1294662E1,7.604677E1,1.4351581E2,3.1810425E2,9.098007E1,4.0156982E1,3.5554962E1,1.1530112E2,3.4782516E1,2.0189563E2,1.3027051E2,5.2496094E1,8.1456726E1,4.1625977E2,1.1704486E2,7.386395E1,3.1892822E2,0E0,0E0,0E0,0E0,0E0,0E0,0E0,0E0,0E0,0E0,0E0,0E0,0E0,0E0,0E0,0E0,0E0,0E0,0E0,0E0,0E0,0E0,0E0,0E0,0E0,0E0,0E0,0E0,0E0,0E0,0E0,0E0,0E0,0E0,0E0,0E0,0E0,0E0,0E0,0E0,0E0,0E0,0E0,0E0,0E0,0E0,0E0,0E0,0E0,0E0,0E0,0E0,0E0,0E0,0E0,0E0,0E0,0E0,0E0,0E0,0E0,0E0,0E0,0E0],"parents":[2147483647,0,0,1,1,2,2,3,3,4,4,5,5,6,6,7,7,8,8,9,9,10,10,11,11,12,12,13,13,14,14,15,15,16,16,17,17,18,18,19,19,20,20,21,21,22,22,23,23,24,24,25,25,26,26,27,27,28,28,29,29,30,30,31,31,32,32,33,33,34,34,35,35,36,36,37,37,38,38,39,39,40,40,41,41,42,42,43,43,44,44,45,45,46,46,47,47,48,48,49,49,50,50,51,51,52,52,53,53,54,54,55,55,56,56,57,57,58,58,59,59,60,60,61,61,62,62],"right_children":[2,4,6,8,10,12,14,16,18,20,22,24,26,28,30,32,34,36,38,40,42,44,46,48,50,52,54,56,58,60,62,64,66,68,70,72,74,76,78,80,82,84,86,88,90,92,94,96,98,100,102,104,106,108,110,112,114,116,118,120,122,124,126,-1,-1,-1,-1,-1,-1,-1,-1,-1,-1,-1,-1,-1,-1,-1,-1,-1,-1,-1,-1,-1,-1,-1,-1,-1,-1,-1,-1,-1,-1,-1,-1,-1,-1,-1,-1,-1,-1,-1,-1,-1,-1,-1,-1,-1,-1,-1,-1,-1,-1,-1,-1,-1,-1,-1,-1,-1,-1,-1,-1,-1,-1,-1,-1],"split_conditions":[3.6E1,1E0,2E0,2E0,3E0,4E0,1E0,1E0,2E0,2.8E1,6.5E1,4.8E1,4.7E1,3E0,3E0,4.7E1,4.8E1,3E0,3E0,1.2E1,6.5E1,2.4E1,1.6E1,1E0,1E0,1E0,1E0,4.9E1,2E0,4.8E1,2.5E1,1.4E1,1E0,3.43E2,3E0,4.8E1,1E0,4.3E1,7.6E1,4E0,4E0,3E1,1.3E1,4E0,3.2E1,3E0,1.79E2,1.79E2,7.1E1,1E0,1.83E2,4E0,1E0,1E0,3E0,1E0,2E0,1E0,4E0,1E0,1E0,5.4E1,7.1E1,7.044817E-2,1.24973785E-2,2.9363498E-2,-2.6745483E-2,7.433694E-2,1.0865825E-1,2.5222927E-2,6.621572E-2,1.5160963E-2,-5.8253974E-2,4.1349337E-2,-8.7488785E-2,3.8708124E-2,-1.3742517E-2,3.9621934E-2,8.263629E-2,6.604778E-2,1.2618758E-1,2.8426936E-2,8.901696E-2,1.12405255E-1,6.866775E-2,6.711287E-2,-8.0240285E-3,6.5620355E-2,1.176727E-1,2.5307147E-2,-2.8625911E-2,3.1493974E-3,4.2496353E-2,-9.5763676E-2,-3.1062115E-2,-4.483756E-2,3.6035232E-2,-8.7464504E-2,-6.6519775E-3,-1.1250295E-1,-4.666136E-2,-8.814354E-2,-2.0847004E-2,7.462738E-2,1.0428045E-1,9.271595E-3,5.1544905E-2,2.058602E-2,-4.3985646E-2,1.8238775E-2,5.6147814E-2,-8.70392E-2,-3.8930073E-2,-1.2804516E-1,-7.366445E-2,-7.3561035E-2,-1.3816245E-1,-1.1272571E-1,-5.70586E-2,-4.243852E-2,1.1199847E-2,1.9130263E-2,-7.083314E-2,-7.861932E-2,-8.147404E-3,-1.3227968E-1,-8.551369E-2],"split_indices":[2,1,0,0,0,5,1,4,4,10,10,10,10,0,0,10,10,0,4,2,10,2,2,0,1,0,1,10,4,10,10,2,0,11,4,10,9,10,10,5,5,2,2,5,2,5,11,11,11,4,11,4,8,18,4,4,4,9,5,18,9,11,11,0,0,0,0,0,0,0,0,0,0,0,0,0,0,0,0,0,0,0,0,0,0,0,0,0,0,0,0,0,0,0,0,0,0,0,0,0,0,0,0,0,0,0,0,0,0,0,0,0,0,0,0,0,0,0,0,0,0,0,0,0,0,0,0],"split_type":[0,0,0,0,0,0,0,0,0,0,0,0,0,0,0,0,0,0,0,0,0,0,0,0,0,0,0,0,0,0,0,0,0,0,0,0,0,0,0,0,0,0,0,0,0,0,0,0,0,0,0,0,0,0,0,0,0,0,0,0,0,0,0,0,0,0,0,0,0,0,0,0,0,0,0,0,0,0,0,0,0,0,0,0,0,0,0,0,0,0,0,0,0,0,0,0,0,0,0,0,0,0,0,0,0,0,0,0,0,0,0,0,0,0,0,0,0,0,0,0,0,0,0,0,0,0,0],"sum_hessian":[1.3933742E5,8.428954E4,5.5047875E4,3.283904E4,5.1450504E4,1.8958191E4,3.6089684E4,1.3771348E4,1.9067691E4,4.0991E4,1.0459502E4,1.2750591E4,6.2076E3,1.8332715E4,1.7756969E4,4.605446E3,9.165902E3,1.601514E4,3.0525515E3,1.0576515E4,3.0414488E4,6.2230435E3,4.2364585E3,7.5410913E3,5.2095E3,3.7381636E3,2.4694365E3,6.649674E3,1.168304E4,8.202489E3,9.55448E3,8.796438E2,3.7258018E3,2.8371653E3,6.328737E3,7.5559043E3,8.459235E3,1.9030482E3,1.1495032E3,5.595556E3,4.980958E3,1.7489898E4,1.2924589E4,4.442202E3,1.7808414E3,3.9355857E3,3.0087274E2,1.7653325E3,5.775759E3,3.0399292E3,2.1695708E3,2.2823555E3,1.4558083E3,1.4380114E3,1.0314253E3,3.518888E3,3.130786E3,1.0533112E4,1.1499277E3,5.7998657E3,2.4026233E3,8.7591455E2,8.678565E3,6.02249E2,2.7739478E2,9.724515E2,2.7533503E3,9.6326855E2,1.8738967E3,2.6054238E3,3.723313E3,1.9455267E3,5.6103774E3,1.6300986E2,8.296226E3,4.486378E2,1.4544104E3,9.4920624E2,2.0029694E2,4.911983E3,6.835735E2,4.559951E3,4.210067E2,1.4961137E4,2.5287622E3,1.2305873E4,6.187157E2,3.8422417E3,5.999606E2,1.2376161E3,5.4322546E2,2.9270989E3,1.0084868E3,1.5032791E2,1.5054485E2,1.2429554E2,1.641037E3,2.2783499E2,5.547924E3,1.2417345E3,1.7981947E3,2.2321133E2,1.9463594E3,1.634534E3,6.478213E2,2.3838353E2,1.2174248E3,1.06569E3,3.7232144E2,3.9076404E2,6.406613E2,1.905808E3,1.6130801E3,2.594288E3,5.364977E2,1.30962E2,1.040215E4,7.3540497E2,4.1452283E2,3.0434524E3,2.7564133E3,1.5415088E2,2.2484724E3,1.8893137E2,6.869832E2,1.8607015E3,6.8178643E3],"tree_param":{"num_deleted":"0","num_feature":"19","num_nodes":"127","size_leaf_vector":"1"}},{"base_weights":[-4.1760748E-5,3.7110546E-1,-5.07276E-1,-9.681366E-3,6.608102E-1,-1.9302087E-1,-1.0330287E0,4.5097163E-1,-3.6315015E-1,8.415506E-1,5.0869536E-1,-5.069785E-1,7.037149E-2,-1.2048686E0,-8.0715823E-1,7.961682E-1,2.8615227E-1,-5.6500244E-1,-1.4614624E-2,6.035576E-1,9.0419126E-1,6.3832086E-1,2.2597384E-1,-7.7120656E-1,-2.2333805E-1,-7.5653985E-2,5.4133165E-1,-1.257101E0,-7.642289E-1,-1.7915954E-1,-8.764244E-1,6.176059E-1,9.5910454E-1,5.3877765E-1,1.5139108E-2,-3.5286075E-1,-7.711319E-1,-1.166674E-1,4.605286E-1,1.0600765E0,5.6265277E-1,6.162195E-1,1.0045335E0,4.3625537E-1,8.095662E-1,3.1387785E-1,-1.6328758E-1,-8.9841795E-1,-2.733717E-1,-3.187821E-1,4.0932536E-1,5.2407052E-2,-4.4875333E-1,7.64414E-1,1.7941417E-1,-1.2766273E0,-8.093281E-1,1.6170768E-1,-8.1969863E-1,-5.097905E-1,3.0281323E-1,-9.2755926E-1,-5.9432235E-2,7.193265E-2,3.373025E-2,1.0749383E-1,7.3696665E-2,4.6823613E-2,7.819461E-2,-1.2254804E-2,3.407022E-2,1.7126251E-2,-4.63833E-2,-6.016874E-2,-9.495894E-2,1.2421895E-2,-3.2677937E-2,6.661519E-2,3.2025978E-2,1.22601666E-1,9.613564E-2,6.778414E-2,4.438973E-2,5.2443236E-2,1.0332035E-1,1.0680939E-1,8.467599E-2,2.5094489E-2,1.0584574E-1,9.4151005E-2,6.0422838E-2,1.1417253E-2,4.655326E-2,-2.9322764E-2,2.2255642E-2,-5.879947E-2,-1.0664109E-1,3.269795E-3,-5.0922003E-2,-4.095676E-2,1.5501413E-2,2.6153132E-2,8.173182E-2,4.5475487E-2,-4.1804845E-3,-1.1628847E-2,-6.2241603E-2,8.308504E-2,5.7559706E-2,7.2851675E-3,5.6978088E-2,-6.1666247E-2,-1.2861504E-1,-6.2811546E-2,-1.04222015E-1,3.4955006E-2,-2.6323978E-2,-9.2030734E-2,-4.1660976E-2,5.9520848E-2,-5.686557E-2,8.043318E-2,9.779285E-3,-3.2357052E-3,-9.6885204E-2,-5.2111977E-6,-8.590584E-2],"categories":[],"categories_nodes":[],"categories_segments":[],"categories_sizes":[],"default_left":[0,0,0,0,0,0,0,0,0,0,0,0,0,0,0,0,0,0,0,0,0,0,0,0,0,0,0,0,0,0,0,0,0,0,0,0,0,0,0,0,0,0,0,0,0,0,0,0,0,0,0,0,0,0,0,0,0,0,0,0,0,0,0,0,0,0,0,0,0,0,0,0,0,0,0,0,0,0,0,0,0,0,0,0,0,0,0,0,0,0,0,0,0,0,0,0,0,0,0,0,0,0,0,0,0,0,0,0,0,0,0,0,0,0,0,0,0,0,0,0,0,0,0,0,0,0,0],"id":4,"left_children":[1,3,5,7,9,11,13,15,17,19,21,23,25,27,29,31,33,35,37,39,41,43,45,47,49,51,53,55,57,59,61,63,65,67,69,71,73,75,77,79,81,83,85,87,89,91,93,95,97,99,101,103,105,107,109,111,113,115,117,119,121,123,125,-1,-1,-1,-1,-1,-1,-1,-1,-1,-1,-1,-1,-1,-1,-1,-1,-1,-1,-1,-1,-1,-1,-1,-1,-1,-1,-1,-1,-1,-1,-1,-1,-1,-1,-1,-1,-1,-1,-1,-1,-1,-1,-1,-1,-1,-1,-1,-1,-1,-1,-1,-1,-1,-1,-1,-1,-1,-1,-1,-1,-1,-1,-1,-1],"loss_changes":[2.594539E4,8.779477E3,9.62107E3,5.5994224E3,1.2422148E3,3.0141218E3,8.445918E2,8.4925586E2,1.368928E3,3.0736523E2,8.9938184E2,1.2460498E3,1.3631962E3,2.837539E2,4.0942383E2,1.3977368E2,6.9197797E2,5.3855054E2,3.461359E2,7.982251E1,4.7178027E2,5.8196045E2,2.6412732E2,5.4492334E2,4.8446875E2,7.229736E2,3.7862976E2,9.565039E1,6.759674E1,1.4941054E2,3.5422168E2,6.547015E1,6.407153E1,8.936401E1,2.1866464E2,3.5337775E2,1.8838086E2,2.9744885E2,3.6189423E1,4.6041565E0,5.3793945E1,1.612456E2,1.2066113E2,8.900576E2,2.4618848E2,1.906336E2,7.137918E1,3.5690137E2,1.2659024E2,2.9987463E2,6.3212753E1,4.2704715E2,2.2316718E2,3.5926147E1,7.4431885E1,6.578906E1,1.8960876E1,6.0848265E0,4.9881226E1,3.6497894E1,3.917041E1,2.9497656E2,2.3768217E1,0E0,0E0,0E0,0E0,0E0,0E0,0E0,0E0,0E0,0E0,0E0,0E0,0E0,0E0,0E0,0E0,0E0,0E0,0E0,0E0,0E0,0E0,0E0,0E0,0E0,0E0,0E0,0E0,0E0,0E0,0E0,0E0,0E0,0E0,0E0,0E0,0E0,0E0,0E0,0E0,0E0,0E0,0E0,0E0,0E0,0E0,0E0,0E0,0E0,0E0,0E0,0E0,0E0,0E0,0E0,0E0,0E0,0E0,0E0,0E0,0E0,0E0,0E0,0E0],"parents":[2147483647,0,0,1,1,2,2,3,3,4,4,5,5,6,6,7,7,8,8,9,9,10,10,11,11,12,12,13,13,14,14,15,15,16,16,17,17,18,18,19,19,20,20,21,21,22,22,23,23,24,24,25,25,26,26,27,27,28,28,29,29,30,30,31,31,32,32,33,33,34,34,35,35,36,36,37,37,38,38,39,39,40,40,41,41,42,42,43,43,44,44,45,45,46,46,47,47,48,48,49,49,50,50,51,51,52,52,53,53,54,54,55,55,56,56,57,57,58,58,59,59,60,60,61,61,62,62],"right_children":[2,4,6,8,10,12,14,16,18,20,22,24,26,28,30,32,34,36,38,40,42,44,46,48,50,52,54,56,58,60,62,64,66,68,70,72,74,76,78,80,82,84,86,88,90,92,94,96,98,100,102,104,106,108,110,112,114,116,118,120,122,124,126,-1,-1,-1,-1,-1,-1,-1,-1,-1,-1,-1,-1,-1,-1,-1,-1,-1,-1,-1,-1,-1,-1,-1,-1,-1,-1,-1,-1,-1,-1,-1,-1,-1,-1,-1,-1,-1,-1,-1,-1,-1,-1,-1,-1,-1,-1,-1,-1,-1,-1,-1,-1,-1,-1,-1,-1,-1,-1,-1,-1,-1,-1,-1,-1],"split_conditions":[3.2E1,1E0,3E0,2E0,2E0,1E0,1E0,5.1E1,1E0,2E0,6.7E1,2E0,3E0,2E0,2.5E1,2E0,1E0,3E0,3E0,6.1E1,2.8E1,3E1,4E0,2E0,1E0,4.9E1,5E1,2E0,1E0,1E0,2E0,1.4E1,4.5E1,4E0,2E0,4.4E1,6.7E1,5.4E1,1E0,5.2E1,1E0,1E0,6.5E1,1E0,3E0,2E0,3E0,4.4E1,5.1E1,1E0,1E0,1E0,1E0,4.5E1,3E0,1E0,5.4E1,5.2E1,3E0,1E0,2.3E1,1E0,6.8E1,7.193265E-2,3.373025E-2,1.0749383E-1,7.3696665E-2,4.6823613E-2,7.819461E-2,-1.2254804E-2,3.407022E-2,1.7126251E-2,-4.63833E-2,-6.016874E-2,-9.495894E-2,1.2421895E-2,-3.2677937E-2,6.661519E-2,3.2025978E-2,1.22601666E-1,9.613564E-2,6.778414E-2,4.438973E-2,5.2443236E-2,1.0332035E-1,1.0680939E-1,8.467599E-2,2.5094489E-2,1.0584574E-1,9.4151005E-2,6.0422838E-2,1.1417253E-2,4.655326E-2,-2.9322764E-2,2.2255642E-2,-5.879947E-2,-1.0664109E-1,3.269795E-3,-5.0922003E-2,-4.095676E-2,1.5501413E-2,2.6153132E-2,8.173182E-2,4.5475487E-2,-4.1804845E-3,-1.1628847E-2,-6.2241603E-2,8.308504E-2,5.7559706E-2,7.2851675E-3,5.6978088E-2,-6.1666247E-2,-1.2861504E-1,-6.2811546E-2,-1.04222015E-1,3.4955006E-2,-2.6323978E-2,-9.2030734E-2,-4.1660976E-2,5.9520848E-2,-5.686557E-2,8.043318E-2,9.779285E-3,-3.2357052E-3,-9.6885204E-2,-5.2111977E-6,-8.590584E-2],"split_indices":[2,6,0,0,0,8,6,10,4,6,10,6,4,4,10,4,0,0,4,10,10,10,0,4,3,10,10,3,9,7,3,2,10,4,4,10,10,10,14,10,0,7,10,7,0,6,6,10,10,7,7,0,0,10,6,9,10,10,4,9,10,9,10,0,0,0,0,0,0,0,0,0,0,0,0,0,0,0,0,0,0,0,0,0,0,0,0,0,0,0,0,0,0,0,0,0,0,0,0,0,0,0,0,0,0,0,0,0,0,0,0,0,0,0,0,0,0,0,0,0,0,0,0,0,0,0,0],"split_type":[0,0,0,0,0,0,0,0,0,0,0,0,0,0,0,0,0,0,0,0,0,0,0,0,0,0,0,0,0,0,0,0,0,0,0,0,0,0,0,0,0,0,0,0,0,0,0,0,0,0,0,0,0,0,0,0,0,0,0,0,0,0,0,0,0,0,0,0,0,0,0,0,0,0,0,0,0,0,0,0,0,0,0,0,0,0,0,0,0,0,0,0,0,0,0,0,0,0,0,0,0,0,0,0,0,0,0,0,0,0,0,0,0,0,0,0,0,0,0,0,0,0,0,0,0,0,0],"sum_hessian":[1.3781584E5,7.958393E4,5.8231914E4,3.4386895E4,4.519704E4,3.644764E4,2.1784271E4,1.4929703E4,1.9457191E4,2.065297E4,2.4544068E4,1.6627324E4,1.9820316E4,1.2369417E4,9.4148545E3,4.823521E3,1.0106182E4,1.2320959E4,7.1362324E3,4.305512E3,1.6347459E4,1.6827527E4,7.7165396E3,8.607349E3,8.0199766E3,1.5129971E4,4.690345E3,1.1056899E4,1.3125171E3,9.356261E2,8.479229E3,2.3036912E3,2.5198298E3,5.230021E3,4.8761606E3,6.073264E3,6.247695E3,5.875112E3,1.2611207E3,3.52008E2,3.9535042E3,4.226109E3,1.2121351E4,7.7207607E3,9.106768E3,6.295147E3,1.4213927E3,6.8549126E3,1.7524362E3,6.9691084E3,1.0508683E3,1.1264464E4,3.865507E3,2.901053E3,1.7892924E3,1.059311E4,4.6378973E2,7.40761E1,1.2384409E3,5.5490576E2,3.8072034E2,7.979653E3,4.9957523E2,1.6891439E3,6.1454724E2,1.6536798E3,8.6614996E2,4.0562546E3,1.1737664E3,3.4273074E3,1.4488534E3,1.0611057E3,5.012158E3,3.2070176E3,3.040677E3,2.7372988E3,3.1378127E3,5.0989905E2,7.512216E2,1.27042015E2,2.2496599E2,2.0045013E3,1.9490027E3,3.4655286E3,7.6058026E2,8.6363545E3,3.484996E3,5.9500576E3,1.7707029E3,5.5420386E3,3.5647292E3,2.7178804E3,3.5772664E3,1.0634847E3,3.5790802E2,2.4086416E3,4.446271E3,7.630532E2,9.893829E2,5.8485796E3,1.1205288E3,7.726275E2,2.7824075E2,2.136472E3,9.127991E3,1.3269072E3,2.5385999E3,2.1434626E3,7.5759033E2,1.4065251E3,3.8276727E2,1.5161432E2,1.0441496E4,2.629141E2,2.0087564E2,5.1492123E1,2.258398E1,9.900476E2,2.4839336E2,2.7604856E1,5.273009E2,1.0962753E2,2.710928E2,3.5192496E2,7.627728E3,4.6597226E2,3.3602966E1],"tree_param":{"num_deleted":"0","num_feature":"19","num_nodes":"127","size_leaf_vector":"1"}},{"base_weights":[-1.523726E-3,-3.4742406E-1,3.821362E-1,-7.820969E-2,-8.4398335E-1,1.07313804E-1,7.41866E-1,-2.2092704E-1,3.0489078E-1,-1.0821244E0,-5.51529E-1,4.5618427E-1,-1.9503243E-1,8.1254715E-1,4.510582E-1,-5.7203186E-1,2.6847757E-2,5.2626956E-1,-3.53593E-2,-1.1405207E0,-6.2240785E-1,-1.0804641E0,-4.4409546E-1,7.836002E-1,3.5897213E-1,-2.854007E-1,2.746178E-1,6.0667825E-1,8.9360505E-1,6.061642E-1,2.1611957E-1,-2.8245232E-1,-7.8073996E-1,-1.5727666E-1,2.1271606E-1,3.316285E-1,6.900652E-1,-2.0307475E-1,3.2001117E-1,-3.555322E-1,-1.153767E0,-9.5292944E-1,-3.6027205E-1,-3.0697608E-1,-1.1384887E0,6.082682E-2,-5.1451874E-1,6.700484E-1,9.836142E-1,5.5024266E-1,1.5615365E-1,-8.172548E-2,-5.0014216E-1,4.924986E-1,1.3560203E-1,4.9068874E-1,1.0836581E0,9.9868304E-1,7.065915E-1,5.0497884E-1,8.2110214E-1,1.19903E-1,5.8035934E-1,-1.5137262E-3,-5.0280392E-2,-2.5346084E-2,-8.643624E-2,-2.3037871E-2,2.703608E-2,3.0505864E-2,-1.6501425E-2,4.125758E-2,2.468341E-3,5.086206E-3,7.162079E-2,-1.5909646E-3,-4.235308E-2,-1.1053789E-1,3.464818E-2,-6.322341E-2,-1.0742978E-2,-1.22410394E-1,-1.0442915E-1,-1.2055166E-1,-7.6767616E-2,1.0203837E-2,-4.818513E-2,-6.880103E-2,3.853316E-3,-5.2792367E-2,-1.1544482E-1,-2.0740515E-2,5.6754924E-2,2.276188E-2,-5.6050222E-2,4.8680156E-2,7.744957E-2,1.0745267E-1,7.552129E-2,5.084033E-2,6.84372E-2,3.1652548E-3,4.329883E-2,4.2737883E-2,-1.9202117E-2,5.7710756E-2,-5.2285828E-2,7.8480415E-2,3.391801E-2,-2.3320646E-3,3.7320103E-2,2.6890075E-2,7.105E-2,9.06395E-2,1.1301577E-1,1.1182983E-1,9.455332E-2,6.040228E-2,8.62504E-2,3.4806307E-2,6.14199E-2,7.351136E-2,1.1920688E-1,2.3531096E-2,-4.0286453E-3,4.8273917E-2,1.09186344E-1],"categories":[],"categories_nodes":[],"categories_segments":[],"categories_sizes":[],"default_left":[0,0,0,0,0,0,0,0,0,0,0,0,0,0,0,0,0,0,0,0,0,0,0,0,0,0,0,0,0,0,0,0,0,0,0,0,0,0,0,0,0,0,0,0,0,0,0,0,0,0,0,0,0,0,0,0,0,0,0,0,0,0,0,0,0,0,0,0,0,0,0,0,0,0,0,0,0,0,0,0,0,0,0,0,0,0,0,0,0,0,0,0,0,0,0,0,0,0,0,0,0,0,0,0,0,0,0,0,0,0,0,0,0,0,0,0,0,0,0,0,0,0,0,0,0,0,0],"id":5,"left_children":[1,3,5,7,9,11,13,15,17,19,21,23,25,27,29,31,33,35,37,39,41,43,45,47,49,51,53,55,57,59,61,63,65,67,69,71,73,75,77,79,81,83,85,87,89,91,93,95,97,99,101,103,105,107,109,111,113,115,117,119,121,123,125,-1,-1,-1,-1,-1,-1,-1,-1,-1,-1,-1,-1,-1,-1,-1,-1,-1,-1,-1,-1,-1,-1,-1,-1,-1,-1,-1,-1,-1,-1,-1,-1,-1,-1,-1,-1,-1,-1,-1,-1,-1,-1,-1,-1,-1,-1,-1,-1,-1,-1,-1,-1,-1,-1,-1,-1,-1,-1,-1,-1,-1,-1,-1,-1],"loss_changes":[1.804508E4,9.559013E3,6.3734463E3,2.5352961E3,1.7501953E3,3.855254E3,5.73542E2,2.9390615E3,9.480394E2,3.712373E2,6.4078E2,5.398274E2,8.311124E2,3.7426465E2,1.9889221E2,8.445498E2,6.779049E2,2.428645E2,2.9580264E2,1.2740625E2,1.3514551E2,8.5123535E1,3.3361523E2,8.7553955E1,5.075692E2,7.181958E2,9.5651535E1,3.5068604E2,3.1593457E2,7.112024E1,7.61002E1,3.449348E2,3.579204E2,3.1114307E2,3.4388632E2,8.661197E1,6.9138794E1,1.3911221E2,6.0425156E1,1.403475E1,9.179785E1,3.1411194E1,4.9158752E1,1.7702415E1,1.6649658E1,1.563139E2,2.8109253E2,4.7100952E1,2.8349731E1,3.7444702E1,2.189419E2,4.7339398E2,1.959076E2,5.4881958E1,7.290904E1,2.4884888E2,9.204346E0,6.4515625E1,9.223193E1,3.815851E1,3.2656128E1,3.1817183E1,2.2137436E1,0E0,0E0,0E0,0E0,0E0,0E0,0E0,0E0,0E0,0E0,0E0,0E0,0E0,0E0,0E0,0E0,0E0,0E0,0E0,0E0,0E0,0E0,0E0,0E0,0E0,0E0,0E0,0E0,0E0,0E0,0E0,0E0,0E0,0E0,0E0,0E0,0E0,0E0,0E0,0E0,0E0,0E0,0E0,0E0,0E0,0E0,0E0,0E0,0E0,0E0,0E0,0E0,0E0,0E0,0E0,0E0,0E0,0E0,0E0,0E0,0E0,0E0,0E0,0E0],"parents":[2147483647,0,0,1,1,2,2,3,3,4,4,5,5,6,6,7,7,8,8,9,9,10,10,11,11,12,12,13,13,14,14,15,15,16,16,17,17,18,18,19,19,20,20,21,21,22,22,23,23,24,24,25,25,26,26,27,27,28,28,29,29,30,30,31,31,32,32,33,33,34,34,35,35,36,36,37,37,38,38,39,39,40,40,41,41,42,42,43,43,44,44,45,45,46,46,47,47,48,48,49,49,50,50,51,51,52,52,53,53,54,54,55,55,56,56,57,57,58,58,59,59,60,60,61,61,62,62],"right_children":[2,4,6,8,10,12,14,16,18,20,22,24,26,28,30,32,34,36,38,40,42,44,46,48,50,52,54,56,58,60,62,64,66,68,70,72,74,76,78,80,82,84,86,88,90,92,94,96,98,100,102,104,106,108,110,112,114,116,118,120,122,124,126,-1,-1,-1,-1,-1,-1,-1,-1,-1,-1,-1,-1,-1,-1,-1,-1,-1,-1,-1,-1,-1,-1,-1,-1,-1,-1,-1,-1,-1,-1,-1,-1,-1,-1,-1,-1,-1,-1,-1,-1,-1,-1,-1,-1,-1,-1,-1,-1,-1,-1,-1,-1,-1,-1,-1,-1,-1,-1,-1,-1,-1,-1,-1,-1],"split_conditions":[2E0,3E0,2E0,2E0,1E0,2E0,3E0,2E0,5.1E1,2E0,6.8E1,5.1E1,2E0,2.9E1,6.5E1,4.4E1,1E0,3E0,1E0,1E0,1.83E2,2.4E1,2.5E1,3E0,1E0,3E0,1E0,1E0,6.5E1,5.3E2,1E0,2E0,1E0,1E0,5.2E1,1E0,1.86E2,1E0,8.5E1,1.79E2,1.79E2,4.7E1,2.43E2,1E0,1E0,1E0,1E0,1E0,4.6E1,4E0,1E0,4.7E1,1E0,5.2E1,3E0,1E0,4E0,1E0,3E0,3.1E1,1E0,4E0,3E0,-1.5137262E-3,-5.0280392E-2,-2.5346084E-2,-8.643624E-2,-2.3037871E-2,2.703608E-2,3.0505864E-2,-1.6501425E-2,4.125758E-2,2.468341E-3,5.086206E-3,7.162079E-2,-1.5909646E-3,-4.235308E-2,-1.1053789E-1,3.464818E-2,-6.322341E-2,-1.0742978E-2,-1.22410394E-1,-1.0442915E-1,-1.2055166E-1,-7.6767616E-2,1.0203837E-2,-4.818513E-2,-6.880103E-2,3.853316E-3,-5.2792367E-2,-1.1544482E-1,-2.0740515E-2,5.6754924E-2,2.276188E-2,-5.6050222E-2,4.8680156E-2,7.744957E-2,1.0745267E-1,7.552129E-2,5.084033E-2,6.84372E-2,3.1652548E-3,4.329883E-2,4.2737883E-2,-1.9202117E-2,5.7710756E-2,-5.2285828E-2,7.8480415E-2,3.391801E-2,-2.3320646E-3,3.7320103E-2,2.6890075E-2,7.105E-2,9.06395E-2,1.1301577E-1,1.1182983E-1,9.455332E-2,6.040228E-2,8.62504E-2,3.4806307E-2,6.14199E-2,7.351136E-2,1.1920688E-1,2.3531096E-2,-4.0286453E-3,4.8273917E-2,1.09186344E-1],"split_indices":[3,0,6,4,6,0,0,6,10,4,11,10,4,10,10,10,18,4,6,9,11,10,10,4,0,0,14,7,10,11,4,0,0,7,10,14,11,0,11,11,11,11,11,7,9,7,9,8,10,4,6,10,9,10,4,4,3,0,6,10,7,0,4,0,0,0,0,0,0,0,0,0,0,0,0,0,0,0,0,0,0,0,0,0,0,0,0,0,0,0,0,0,0,0,0,0,0,0,0,0,0,0,0,0,0,0,0,0,0,0,0,0,0,0,0,0,0,0,0,0,0,0,0,0,0,0,0],"split_type":[0,0,0,0,0,0,0,0,0,0,0,0,0,0,0,0,0,0,0,0,0,0,0,0,0,0,0,0,0,0,0,0,0,0,0,0,0,0,0,0,0,0,0,0,0,0,0,0,0,0,0,0,0,0,0,0,0,0,0,0,0,0,0,0,0,0,0,0,0,0,0,0,0,0,0,0,0,0,0,0,0,0,0,0,0,0,0,0,0,0,0,0,0,0,0,0,0,0,0,0,0,0,0,0,0,0,0,0,0,0,0,0,0,0,0,0,0,0,0,0,0,0,0,0,0,0,0],"sum_hessian":[1.3597373E5,7.150568E4,6.4468043E4,4.6367992E4,2.5137691E4,3.654789E4,2.7920152E4,3.378311E4,1.2584882E4,1.3853943E4,1.1283749E4,1.6968182E4,1.9579709E4,2.2459545E4,5.460608E3,1.3976564E4,1.9806545E4,7.623933E3,4.9609487E3,1.2291157E4,1.5627859E3,1.9034249E3,9.380324E3,3.8829907E3,1.3085191E4,1.6420527E4,3.1591812E3,6.3473066E3,1.6112238E4,3.288179E3,2.1724292E3,5.8550796E3,8.121485E3,9.950026E3,9.856519E3,3.4853086E3,4.1386245E3,3.370626E3,1.5903228E3,2.0442744E2,1.208673E4,6.900637E2,8.7272217E2,1.3326352E2,1.7701615E3,1.1481847E3,8.23214E3,2.4796147E3,1.4033759E3,6.733431E3,6.3517603E3,8.428117E3,7.9924106E3,1.2295509E3,1.9296302E3,5.1073545E3,1.2399518E3,1.0313189E4,5.7990483E3,2.2379692E3,1.0502097E3,1.7195317E3,4.5289755E2,2.6460938E3,3.2089858E3,1.1122504E3,7.009235E3,8.497834E3,1.4521923E3,7.920428E3,1.9360903E3,2.7577048E3,7.276036E2,1.6273003E2,3.9758945E3,1.8235345E3,1.5470914E3,2.8251976E1,1.5620708E3,9.591159E1,1.08515854E2,7.3525806E3,4.73415E3,2.8964056E2,4.004232E2,1.8175424E2,6.9096796E2,6.290233E1,7.036118E1,4.5959644E1,1.7242018E3,7.511542E2,3.9703046E2,4.8007953E2,7.7520596E3,9.0227844E2,1.5773364E3,1.001168E3,4.022078E2,5.1361025E3,1.597329E3,4.382106E3,1.9696542E3,1.500271E3,6.927846E3,1.6455223E2,7.8278584E3,4.2161423E2,8.0793665E2,1.1567905E3,7.728398E2,2.5433533E3,2.5640015E3,2.6192966E2,9.780221E2,3.1666074E3,7.1465825E3,3.5008503E3,2.298198E3,9.2016345E2,1.3178058E3,8.550049E2,1.9520482E2,9.991956E2,7.203361E2,3.81947E2,7.0950554E1],"tree_param":{"num_deleted":"0","num_feature":"19","num_nodes":"127","size_leaf_vector":"1"}},{"base_weights":[1.1516224E-3,3.009798E-1,-4.6388277E-1,-2.3042072E-2,5.4864717E-1,1.44180935E-2,-7.2745174E-1,3.5981673E-1,-3.1322363E-1,7.1259636E-1,4.1594988E-1,-2.879017E-1,1.6735236E-1,-4.6681088E-1,-9.2171896E-1,1.5042913E-1,5.632726E-1,-4.9025977E-1,-1.6643604E-2,8.4765995E-1,6.177131E-1,3.487451E-1,8.2822716E-1,-4.3267685E-1,-2.4370521E-2,5.064165E-1,6.921703E-2,-6.545383E-1,-1.7862436E-1,-1.0751283E0,-7.2389096E-1,-5.213783E-3,3.6433536E-1,5.045268E-1,7.345015E-1,-3.0353037E-1,-6.748262E-1,7.853964E-2,-4.2484787E-1,5.932746E-1,9.3123007E-1,6.883392E-1,4.4693482E-1,4.2895252E-1,1.4279564E-1,8.9578044E-1,4.9944577E-1,-5.7627386E-1,-6.689858E-2,-1.0589532E-1,5.725424E-1,3.6837375E-1,6.5507984E-1,2.747236E-2,6.3002366E-1,-8.128062E-1,-4.226398E-1,-2.4763945E-1,3.8295713E-1,-1.1214943E0,-6.971775E-1,-7.739042E-1,-1.3133658E-1,-5.262404E-3,5.5212565E-2,5.108046E-2,2.4981983E-2,7.99078E-2,4.6023626E-2,8.016459E-2,5.5915784E-2,1.1820633E-2,-3.8331833E-2,-5.8247484E-2,-9.08528E-2,6.022915E-2,3.871064E-3,8.399554E-2,-4.8163686E-2,7.682002E-2,5.1610567E-2,9.632271E-2,6.626374E-2,4.1891485E-2,7.677718E-2,3.8539022E-2,7.8732245E-2,1.044096E-2,5.1793676E-2,1.0728232E-2,5.267359E-2,6.1807793E-2,9.909039E-2,5.665325E-2,-2.491784E-2,7.683627E-3,-6.197813E-2,-2.241735E-2,4.910852E-3,-1.8590717E-2,2.5819639E-2,3.9600518E-2,9.7626165E-2,4.1950043E-2,1.3620413E-2,6.844773E-2,1.6809715E-2,-5.948706E-3,2.6889374E-2,5.0698012E-2,7.4076906E-2,-8.566295E-2,-2.6996387E-2,-4.8026446E-2,6.019582E-3,-4.2404648E-2,-4.9313162E-3,2.625005E-2,7.580536E-2,-1.14118755E-1,-6.851089E-2,-8.183738E-2,-2.4247115E-2,1.1057314E-3,-8.097178E-2,-2.5996178E-2,8.285623E-3],"categories":[],"categories_nodes":[],"categories_segments":[],"categories_sizes":[],"default_left":[0,0,0,0,0,0,0,0,0,0,0,0,0,0,0,0,0,0,0,0,0,0,0,0,0,0,0,0,0,0,0,0,0,0,0,0,0,0,0,0,0,0,0,0,0,0,0,0,0,0,0,0,0,0,0,0,0,0,0,0,0,0,0,0,0,0,0,0,0,0,0,0,0,0,0,0,0,0,0,0,0,0,0,0,0,0,0,0,0,0,0,0,0,0,0,0,0,0,0,0,0,0,0,0,0,0,0,0,0,0,0,0,0,0,0,0,0,0,0,0,0,0,0,0,0,0,0],"id":6,"left_children":[1,3,5,7,9,11,13,15,17,19,21,23,25,27,29,31,33,35,37,39,41,43,45,47,49,51,53,55,57,59,61,63,65,67,69,71,73,75,77,79,81,83,85,87,89,91,93,95,97,99,101,103,105,107,109,111,113,115,117,119,121,123,125,-1,-1,-1,-1,-1,-1,-1,-1,-1,-1,-1,-1,-1,-1,-1,-1,-1,-1,-1,-1,-1,-1,-1,-1,-1,-1,-1,-1,-1,-1,-1,-1,-1,-1,-1,-1,-1,-1,-1,-1,-1,-1,-1,-1,-1,-1,-1,-1,-1,-1,-1,-1,-1,-1,-1,-1,-1,-1,-1,-1,-1,-1,-1,-1],"loss_changes":[1.874185E4,6.55844E3,6.642631E3,3.9336707E3,1.00743066E3,8.65623E2,1.7196934E3,6.502549E2,1.0575154E3,2.649922E2,7.090796E2,2.3994775E2,4.136553E2,7.848574E2,5.899004E2,2.5051785E2,7.750781E1,4.3447095E2,2.9259634E2,1.8113916E2,1.4651904E2,3.6360913E2,7.923755E1,2.1317377E2,1.086343E2,5.702594E1,2.2573734E2,3.2211353E2,2.2197302E2,1.9128613E2,2.5191846E2,1.15142E2,5.302841E1,7.4876465E1,2.2810059E1,2.1107208E2,1.363518E2,1.2736847E2,1.026806E2,2.816919E1,5.463379E1,1.8394067E2,7.4365234E1,4.5751978E2,8.410315E1,7.7974365E1,3.0966583E1,8.2872314E1,2.0910213E1,5.7258595E1,1.8732704E1,1.7145462E1,1.910138E1,1.8846097E2,8.7274475E0,1.23967285E2,9.924585E1,1.7836761E2,2.8127708E1,8.310156E1,6.5947876E1,2.2046094E2,1.8290257E1,0E0,0E0,0E0,0E0,0E0,0E0,0E0,0E0,0E0,0E0,0E0,0E0,0E0,0E0,0E0,0E0,0E0,0E0,0E0,0E0,0E0,0E0,0E0,0E0,0E0,0E0,0E0,0E0,0E0,0E0,0E0,0E0,0E0,0E0,0E0,0E0,0E0,0E0,0E0,0E0,0E0,0E0,0E0,0E0,0E0,0E0,0E0,0E0,0E0,0E0,0E0,0E0,0E0,0E0,0E0,0E0,0E0,0E0,0E0,0E0,0E0,0E0,0E0,0E0],"parents":[2147483647,0,0,1,1,2,2,3,3,4,4,5,5,6,6,7,7,8,8,9,9,10,10,11,11,12,12,13,13,14,14,15,15,16,16,17,17,18,18,19,19,20,20,21,21,22,22,23,23,24,24,25,25,26,26,27,27,28,28,29,29,30,30,31,31,32,32,33,33,34,34,35,35,36,36,37,37,38,38,39,39,40,40,41,41,42,42,43,43,44,44,45,45,46,46,47,47,48,48,49,49,50,50,51,51,52,52,53,53,54,54,55,55,56,56,57,57,58,58,59,59,60,60,61,61,62,62],"right_children":[2,4,6,8,10,12,14,16,18,20,22,24,26,28,30,32,34,36,38,40,42,44,46,48,50,52,54,56,58,60,62,64,66,68,70,72,74,76,78,80,82,84,86,88,90,92,94,96,98,100,102,104,106,108,110,112,114,116,118,120,122,124,126,-1,-1,-1,-1,-1,-1,-1,-1,-1,-1,-1,-1,-1,-1,-1,-1,-1,-1,-1,-1,-1,-1,-1,-1,-1,-1,-1,-1,-1,-1,-1,-1,-1,-1,-1,-1,-1,-1,-1,-1,-1,-1,-1,-1,-1,-1,-1,-1,-1,-1,-1,-1,-1,-1,-1,-1,-1,-1,-1,-1,-1,-1,-1,-1],"split_conditions":[3.6E1,1E0,2E0,2E0,2E0,1E0,3E0,2E0,1E0,1E0,1E0,3E0,1E0,3E0,1E0,2E0,4E0,3E0,4E0,2E0,8E0,1.6E1,3E1,2E0,2E0,3E0,2E0,1E0,1E0,2E0,1E0,1E0,1E0,1E0,1E0,1E0,9E0,1E0,1E0,1E0,1E0,2E0,1E0,2E0,2E0,3E0,4E0,1E0,3E0,1E0,2E0,3E0,5.1E1,3E0,1E0,2E0,3E0,1E0,1E0,2E0,3E0,1E0,4E0,-5.262404E-3,5.5212565E-2,5.108046E-2,2.4981983E-2,7.99078E-2,4.6023626E-2,8.016459E-2,5.5915784E-2,1.1820633E-2,-3.8331833E-2,-5.8247484E-2,-9.08528E-2,6.022915E-2,3.871064E-3,8.399554E-2,-4.8163686E-2,7.682002E-2,5.1610567E-2,9.632271E-2,6.626374E-2,4.1891485E-2,7.677718E-2,3.8539022E-2,7.8732245E-2,1.044096E-2,5.1793676E-2,1.0728232E-2,5.267359E-2,6.1807793E-2,9.909039E-2,5.665325E-2,-2.491784E-2,7.683627E-3,-6.197813E-2,-2.241735E-2,4.910852E-3,-1.8590717E-2,2.5819639E-2,3.9600518E-2,9.7626165E-2,4.1950043E-2,1.3620413E-2,6.844773E-2,1.6809715E-2,-5.948706E-3,2.6889374E-2,5.0698012E-2,7.4076906E-2,-8.566295E-2,-2.6996387E-2,-4.8026446E-2,6.019582E-3,-4.2404648E-2,-4.9313162E-3,2.625005E-2,7.580536E-2,-1.14118755E-1,-6.851089E-2,-8.183738E-2,-2.4247115E-2,1.1057314E-3,-8.097178E-2,-2.5996178E-2,8.285623E-3],"split_indices":[2,6,0,0,0,8,0,4,4,0,7,6,9,6,6,17,4,0,0,6,2,2,2,4,3,4,3,4,3,4,3,13,0,9,14,12,2,9,9,4,14,6,7,6,4,6,0,9,4,13,7,17,2,4,6,3,4,18,7,3,4,9,3,0,0,0,0,0,0,0,0,0,0,0,0,0,0,0,0,0,0,0,0,0,0,0,0,0,0,0,0,0,0,0,0,0,0,0,0,0,0,0,0,0,0,0,0,0,0,0,0,0,0,0,0,0,0,0,0,0,0,0,0,0,0,0,0],"split_type":[0,0,0,0,0,0,0,0,0,0,0,0,0,0,0,0,0,0,0,0,0,0,0,0,0,0,0,0,0,0,0,0,0,0,0,0,0,0,0,0,0,0,0,0,0,0,0,0,0,0,0,0,0,0,0,0,0,0,0,0,0,0,0,0,0,0,0,0,0,0,0,0,0,0,0,0,0,0,0,0,0,0,0,0,0,0,0,0,0,0,0,0,0,0,0,0,0,0,0,0,0,0,0,0,0,0,0,0,0,0,0,0,0,0,0,0,0,0,0,0,0,0,0,0,0,0,0],"sum_hessian":[1.3441522E5,8.1724305E4,5.269091E4,3.540502E4,4.6319285E4,1.8720182E4,3.397073E4,1.5264781E4,2.0140238E4,2.0717807E4,2.5601479E4,6.288406E3,1.2431775E4,1.450856E4,1.946217E4,7.523585E3,7.7411963E3,1.2611476E4,7.5287627E3,8.545538E3,1.217227E4,2.201473E4,3.586747E3,4.058281E3,2.2301245E3,2.789546E3,9.6422295E3,8.784793E3,5.7237666E3,1.0959211E4,8.502959E3,4.3554434E3,3.1681416E3,5.766689E3,1.9745073E3,6.270319E3,6.3411567E3,6.1058384E3,1.4229244E3,2.1151555E3,6.4303823E3,8.608965E3,3.5633044E3,1.5843405E4,6.171326E3,2.9739731E3,6.127738E2,2.9138057E3,1.1444755E3,1.9628643E3,2.6726025E2,1.4482433E3,1.3413027E3,8.975193E3,6.670361E2,5.219822E3,3.5649712E3,5.097832E3,6.2593475E2,9.759924E3,1.199287E3,7.8408623E3,6.620969E2,4.0148262E3,3.406169E2,1.3886064E3,1.7795352E3,7.51546E2,5.015143E3,1.425188E3,5.4931934E2,9.974734E2,5.2728457E3,4.547589E3,1.7935676E3,4.305096E2,5.6753286E3,6.0550644E1,1.3623738E3,6.4473157E2,1.470424E3,5.743574E3,6.868083E2,1.9616377E3,6.6473276E3,3.0194905E3,5.438141E2,3.4097078E3,1.2433697E4,5.6499976E3,5.213285E2,7.606972E2,2.2132761E3,5.626005E2,5.0173317E1,1.8193483E2,2.7318708E3,4.8542938E2,6.5904614E2,1.6096265E3,3.5323785E2,1.873272E2,7.993305E1,1.1862166E3,2.6202676E2,1.26456E3,7.6742615E1,6.5990015E3,2.3761914E3,3.1861606E2,3.4842004E2,4.829372E3,3.9045007E2,3.1848733E3,3.8009775E2,2.697407E3,2.4004248E3,4.7507224E2,1.5086252E2,9.336949E3,4.229749E2,9.462707E2,2.530163E2,3.4215683E2,7.4987056E3,4.1354486E2,2.4855205E2],"tree_param":{"num_deleted":"0","num_feature":"19","num_nodes":"127","size_leaf_vector":"1"}},{"base_weights":[1.5483678E-5,2.6756594E-1,-4.4296852E-1,-9.654097E-2,5.0359094E-1,-7.3904586E-3,-6.8840694E-1,-3.144037E-1,3.9450818E-1,6.5816873E-1,3.77864E-1,-1.9343673E-1,3.7699407E-1,-9.156444E-1,-4.686144E-1,-1.2926726E-1,-6.361461E-1,5.14305E-1,1.2467448E-1,3.7727654E-1,6.9737995E-1,4.7172984E-1,1.7259854E-1,-3.741449E-2,-4.645962E-1,5.4758406E-1,1.5749787E-1,-6.8536675E-1,-1.0575548E0,-2.5180283E-1,-6.632122E-1,2.709517E-1,-2.7643272E-1,3.620165E-1,-6.571452E-1,8.707314E-1,4.172562E-1,-9.687316E-3,3.5103786E-1,1.9636317E-1,5.6639105E-1,7.9768354E-1,5.065892E-1,6.403033E-1,2.4465792E-1,2.33846E-1,-4.1811082E-1,-8.709555E-2,4.8422787E-1,-6.286612E-1,-2.398497E-1,6.6190314E-1,3.7125698E-1,6.610429E-2,4.723867E-1,-3.9543062E-1,-8.7030953E-1,-1.0985315E0,-7.094697E-1,2.094602E-1,-3.322149E-1,-7.143009E-1,-7.2960414E-2,4.4769857E-2,-5.6024636E-3,2.0090079E-2,-3.552374E-2,1.7257644E-2,7.94441E-2,-5.5646818E-2,-8.738928E-2,6.0830902E-2,9.342474E-2,4.610591E-2,7.6622143E-3,2.1881836E-2,-1.624926E-2,-5.4151576E-2,3.8836252E-2,1.33144455E-2,5.8418717E-2,4.7858384E-2,9.0047084E-2,8.7424986E-2,6.4681716E-2,4.5778073E-2,8.071668E-2,4.2350415E-2,7.772989E-2,2.0300288E-2,7.244427E-2,3.6885615E-2,7.541166E-3,-2.479132E-2,-7.143504E-2,-2.3185834E-2,3.832937E-3,3.591449E-2,6.6411376E-2,-9.108784E-2,-4.444256E-2,2.6911581E-2,-2.9799674E-2,7.787203E-3,6.950485E-2,3.4774978E-2,1.0233964E-1,1.5676245E-2,-2.2841569E-2,5.699829E-2,2.9237488E-2,-4.6306204E-2,1.6989013E-2,-1.02084614E-1,-5.951003E-2,-1.1293363E-1,-8.936527E-2,-9.2380226E-2,-3.412236E-2,4.5352425E-2,4.7469614E-3,1.8280677E-2,-3.8613744E-2,-3.0088773E-2,-7.807147E-2,-1.486659E-2,5.704667E-2],"categories":[],"categories_nodes":[],"categories_segments":[],"categories_sizes":[],"default_left":[0,0,0,0,0,0,0,0,0,0,0,0,0,0,0,0,0,0,0,0,0,0,0,0,0,0,0,0,0,0,0,0,0,0,0,0,0,0,0,0,0,0,0,0,0,0,0,0,0,0,0,0,0,0,0,0,0,0,0,0,0,0,0,0,0,0,0,0,0,0,0,0,0,0,0,0,0,0,0,0,0,0,0,0,0,0,0,0,0,0,0,0,0,0,0,0,0,0,0,0,0,0,0,0,0,0,0,0,0,0,0,0,0,0,0,0,0,0,0,0,0,0,0,0,0,0,0],"id":7,"left_children":[1,3,5,7,9,11,13,15,17,19,21,23,25,27,29,31,33,35,37,39,41,43,45,47,49,51,53,55,57,59,61,63,65,67,69,71,73,75,77,79,81,83,85,87,89,91,93,95,97,99,101,103,105,107,109,111,113,115,117,119,121,123,125,-1,-1,-1,-1,-1,-1,-1,-1,-1,-1,-1,-1,-1,-1,-1,-1,-1,-1,-1,-1,-1,-1,-1,-1,-1,-1,-1,-1,-1,-1,-1,-1,-1,-1,-1,-1,-1,-1,-1,-1,-1,-1,-1,-1,-1,-1,-1,-1,-1,-1,-1,-1,-1,-1,-1,-1,-1,-1,-1,-1,-1,-1,-1,-1],"loss_changes":[1.5700957E4,7.097824E3,5.332871E3,3.475212E3,9.7360645E2,1.2858013E3,1.5930791E3,1.3402161E3,3.2264355E2,2.4727344E2,5.3238916E2,5.1256104E2,2.1949036E2,5.1187012E2,6.841848E2,8.4136743E2,1.7249512E2,2.3877588E2,9.339951E1,9.4153656E1,3.769834E2,7.257256E2,3.139022E2,1.9937839E2,1.6301251E2,6.625958E1,7.381169E1,3.2050928E2,1.376211E2,2.8470178E2,2.57698E2,2.2198883E2,3.929364E2,1.37869625E1,1.7515942E2,2.4077393E1,8.1070496E1,6.735356E1,3.831572E1,3.448404E1,3.9069275E1,1.4871777E2,9.936011E1,3.228994E2,1.6136215E2,1.6808597E2,4.0924072E1,1.2753716E2,1.481456E1,1.3255511E2,5.538755E1,3.8667603E1,1.9572678E1,5.3165924E1,9.970947E0,8.924603E1,1.507107E2,5.3768555E1,8.056793E1,4.5041855E1,1.8155756E2,2.1574902E2,3.3305565E1,0E0,0E0,0E0,0E0,0E0,0E0,0E0,0E0,0E0,0E0,0E0,0E0,0E0,0E0,0E0,0E0,0E0,0E0,0E0,0E0,0E0,0E0,0E0,0E0,0E0,0E0,0E0,0E0,0E0,0E0,0E0,0E0,0E0,0E0,0E0,0E0,0E0,0E0,0E0,0E0,0E0,0E0,0E0,0E0,0E0,0E0,0E0,0E0,0E0,0E0,0E0,0E0,0E0,0E0,0E0,0E0,0E0,0E0,0E0,0E0,0E0,0E0,0E0,0E0],"parents":[2147483647,0,0,1,1,2,2,3,3,4,4,5,5,6,6,7,7,8,8,9,9,10,10,11,11,12,12,13,13,14,14,15,15,16,16,17,17,18,18,19,19,20,20,21,21,22,22,23,23,24,24,25,25,26,26,27,27,28,28,29,29,30,30,31,31,32,32,33,33,34,34,35,35,36,36,37,37,38,38,39,39,40,40,41,41,42,42,43,43,44,44,45,45,46,46,47,47,48,48,49,49,50,50,51,51,52,52,53,53,54,54,55,55,56,56,57,57,58,58,59,59,60,60,61,61,62,62],"right_children":[2,4,6,8,10,12,14,16,18,20,22,24,26,28,30,32,34,36,38,40,42,44,46,48,50,52,54,56,58,60,62,64,66,68,70,72,74,76,78,80,82,84,86,88,90,92,94,96,98,100,102,104,106,108,110,112,114,116,118,120,122,124,126,-1,-1,-1,-1,-1,-1,-1,-1,-1,-1,-1,-1,-1,-1,-1,-1,-1,-1,-1,-1,-1,-1,-1,-1,-1,-1,-1,-1,-1,-1,-1,-1,-1,-1,-1,-1,-1,-1,-1,-1,-1,-1,-1,-1,-1,-1,-1,-1,-1,-1,-1,-1,-1,-1,-1,-1,-1,-1,-1,-1,-1,-1,-1,-1],"split_conditions":[4E1,1E0,2E0,2E0,2E0,4E0,1E0,3E0,2E0,2.3E1,6.6E1,5E1,4.6E1,3E0,3E0,4.8E1,1E0,4.5E1,3E0,1E0,6.7E1,1.6E1,7E0,2E0,1E0,1E0,4E0,4.3E1,2E0,2.5E1,1E0,1.9E1,1E0,4E0,8E0,2E0,2.4E1,1E0,2E0,1E0,4E0,8E0,5E0,2.9E1,4E0,3E0,2.5E1,1E0,5E0,1E0,1E0,1E0,3E0,5.8E1,5.7E1,4E0,3E0,1E0,4E0,2.2E1,1E0,2.6E1,4E0,4.4769857E-2,-5.6024636E-3,2.0090079E-2,-3.552374E-2,1.7257644E-2,7.94441E-2,-5.5646818E-2,-8.738928E-2,6.0830902E-2,9.342474E-2,4.610591E-2,7.6622143E-3,2.1881836E-2,-1.624926E-2,-5.4151576E-2,3.8836252E-2,1.33144455E-2,5.8418717E-2,4.7858384E-2,9.0047084E-2,8.7424986E-2,6.4681716E-2,4.5778073E-2,8.071668E-2,4.2350415E-2,7.772989E-2,2.0300288E-2,7.244427E-2,3.6885615E-2,7.541166E-3,-2.479132E-2,-7.143504E-2,-2.3185834E-2,3.832937E-3,3.591449E-2,6.6411376E-2,-9.108784E-2,-4.444256E-2,2.6911581E-2,-2.9799674E-2,7.787203E-3,6.950485E-2,3.4774978E-2,1.0233964E-1,1.5676245E-2,-2.2841569E-2,5.699829E-2,2.9237488E-2,-4.6306204E-2,1.6989013E-2,-1.02084614E-1,-5.951003E-2,-1.1293363E-1,-8.936527E-2,-9.2380226E-2,-3.412236E-2,4.5352425E-2,4.7469614E-3,1.8280677E-2,-3.8613744E-2,-3.0088773E-2,-7.807147E-2,-1.486659E-2,5.704667E-2],"split_indices":[2,1,0,4,0,5,1,0,0,10,10,10,10,0,0,10,9,10,4,4,10,2,2,3,1,0,4,10,4,10,3,2,0,5,2,17,2,14,5,13,5,2,1,10,5,0,2,4,3,4,9,8,3,10,10,5,5,8,5,10,9,10,5,0,0,0,0,0,0,0,0,0,0,0,0,0,0,0,0,0,0,0,0,0,0,0,0,0,0,0,0,0,0,0,0,0,0,0,0,0,0,0,0,0,0,0,0,0,0,0,0,0,0,0,0,0,0,0,0,0,0,0,0,0,0,0,0],"split_type":[0,0,0,0,0,0,0,0,0,0,0,0,0,0,0,0,0,0,0,0,0,0,0,0,0,0,0,0,0,0,0,0,0,0,0,0,0,0,0,0,0,0,0,0,0,0,0,0,0,0,0,0,0,0,0,0,0,0,0,0,0,0,0,0,0,0,0,0,0,0,0,0,0,0,0,0,0,0,0,0,0,0,0,0,0,0,0,0,0,0,0,0,0,0,0,0,0,0,0,0,0,0,0,0,0,0,0,0,0,0,0,0,0,0,0,0,0,0,0,0,0,0,0,0,0,0,0],"sum_hessian":[1.3247253E5,8.259049E4,4.9882043E4,3.2482125E4,5.0108363E4,1.7977867E4,3.1904176E4,2.249997E4,9.982155E3,2.2473537E4,2.7634826E4,1.2114712E4,5.863155E3,1.5684863E4,1.6219313E4,1.4282792E4,8.217179E3,6.912388E3,3.069767E3,2.754206E3,1.971933E4,1.8962271E4,8.672557E3,7.6907026E3,4.4240093E3,3.2982769E3,2.564878E3,5.982655E3,9.702209E3,7.6728657E3,8.546447E3,3.8397324E3,1.044306E4,1.6897455E2,8.048204E3,1.4776226E3,5.4347656E3,1.9269504E3,1.1428167E3,1.4086663E3,1.3455397E3,1.2922473E4,6.796858E3,1.0881932E4,8.0803394E3,7.8583687E3,8.1418756E2,7.0226963E3,6.680064E2,2.556192E3,1.8678176E3,1.9993035E3,1.2989734E3,1.9888442E3,5.7603375E2,2.3311821E3,3.6514724E3,8.678427E3,1.0237819E3,1.1388042E3,6.5340615E3,7.8654497E3,6.8099756E2,2.4922039E3,1.3475286E3,1.4795604E3,8.963499E3,1.1847232E2,5.0502224E1,5.498005E3,2.5501992E3,2.9000714E2,1.1876155E3,4.815213E3,6.1955255E2,7.720266E2,1.1549238E3,4.532965E1,1.097487E3,1.2123809E3,1.9628546E2,1.0674191E3,2.7812064E2,8.568879E3,4.3535933E3,5.8495225E3,9.4733527E2,4.215259E3,6.6666724E3,7.4361533E3,6.441857E2,4.2421143E3,3.616255E3,5.182664E2,2.9592114E2,3.2596401E3,3.7630564E3,3.9579114E2,2.722153E2,1.00806537E3,1.5481265E3,1.9113861E2,1.6766791E3,1.07551994E2,1.8917515E3,1.2552592E3,4.3714188E1,1.5210939E3,4.6775034E2,3.7211783E2,2.0391592E2,2.0822551E3,2.4892703E2,2.358622E3,1.2928505E3,7.5401978E3,1.1382294E3,6.461756E2,3.7760632E2,4.5359424E2,6.8520996E2,6.190487E2,5.9150127E3,1.0894381E3,6.7760117E3,6.099947E2,7.1002884E1],"tree_param":{"num_deleted":"0","num_feature":"19","num_nodes":"127","size_leaf_vector":"1"}},{"base_weights":[-2.784367E-3,2.654118E-1,-3.741837E-1,-6.6592515E-2,4.8351112E-1,-8.295238E-1,-1.8627949E-1,-2.5932795E-1,3.6067328E-1,5.807237E-1,3.0810872E-1,-1.0164244E0,-6.27401E-1,-4.3358147E-1,6.522166E-2,-3.7775832E-1,1.6343462E-1,1.6710028E-1,4.881675E-1,3.6064002E-1,7.5567245E-1,-2.2988527E-1,3.452623E-1,-1.0704108E0,-7.801157E-1,1.3452405E-1,-6.848487E-1,-6.899379E-1,-2.1956936E-1,-8.8342145E-2,3.004644E-1,-2.2461173E-1,-5.108117E-1,4.7914016E-1,-4.7057834E-2,3.133503E-1,-4.369507E-2,8.0251634E-1,4.028059E-1,2.4073006E-1,8.394101E-1,4.2607394E-1,7.9975593E-1,-1.16586365E-1,-7.571163E-1,2.892007E-1,5.7425934E-1,-1.0900818E0,-6.281658E-1,-8.492357E-1,-4.2193127E-1,-1.7198384E-1,6.4098275E-1,-1.0087192E0,-5.364302E-1,-7.9735017E-1,-2.489319E-1,2.515558E-1,-3.5452956E-1,3.9288565E-3,-3.5216695E-1,4.4227368E-1,-5.2317232E-2,1.4507033E-2,-3.8180925E-2,-4.594486E-2,-9.739509E-2,-2.8445343E-3,5.6454577E-2,-5.5702176E-2,5.061232E-4,5.6425583E-2,1.4306976E-2,2.2023328E-2,-2.2332437E-2,8.9738466E-2,4.6792842E-2,3.37854E-2,6.748325E-2,7.002854E-3,4.1478556E-2,9.353818E-2,6.815792E-2,5.4476686E-2,1.2430632E-2,8.3289765E-2,5.8444243E-2,-1.7787619E-2,1.0662159E-2,-6.1950482E-2,-1.4752497E-1,-1.8781587E-2,3.1083772E-2,5.4085076E-2,8.627391E-2,-1.1607828E-1,-1.0290425E-1,-6.948207E-2,1.9067898E-2,-8.807027E-2,-2.462194E-3,-1.8274276E-2,-7.8248784E-2,-2.566809E-2,3.0434236E-2,9.2547856E-2,2.1084623E-2,-1.03761934E-1,-4.5898955E-2,-4.2079803E-2,-7.65978E-2,-6.6883884E-2,-9.8207444E-2,-6.141122E-3,-6.311099E-2,1.5967418E-2,6.333853E-2,-4.2522505E-2,1.7841179E-2,-4.090437E-3,4.118032E-2,-5.2469652E-2,-1.4442012E-2,2.9183745E-2,5.473113E-2,-1.8749872E-2,1.6625071E-2],"categories":[],"categories_nodes":[],"categories_segments":[],"categories_sizes":[],"default_left":[0,0,0,0,0,0,0,0,0,0,0,0,0,0,0,0,0,0,0,0,0,0,0,0,0,0,0,0,0,0,0,0,0,0,0,0,0,0,0,0,0,0,0,0,0,0,0,0,0,0,0,0,0,0,0,0,0,0,0,0,0,0,0,0,0,0,0,0,0,0,0,0,0,0,0,0,0,0,0,0,0,0,0,0,0,0,0,0,0,0,0,0,0,0,0,0,0,0,0,0,0,0,0,0,0,0,0,0,0,0,0,0,0,0,0,0,0,0,0,0,0,0,0,0,0,0,0],"id":8,"left_children":[1,3,5,7,9,11,13,15,17,19,21,23,25,27,29,31,33,35,37,39,41,43,45,47,49,51,53,55,57,59,61,63,65,67,69,71,73,75,77,79,81,83,85,87,89,91,93,95,97,99,101,103,105,107,109,111,113,115,117,119,121,123,125,-1,-1,-1,-1,-1,-1,-1,-1,-1,-1,-1,-1,-1,-1,-1,-1,-1,-1,-1,-1,-1,-1,-1,-1,-1,-1,-1,-1,-1,-1,-1,-1,-1,-1,-1,-1,-1,-1,-1,-1,-1,-1,-1,-1,-1,-1,-1,-1,-1,-1,-1,-1,-1,-1,-1,-1,-1,-1,-1,-1,-1,-1,-1,-1],"loss_changes":[1.3014108E4,5.4935986E3,4.6873345E3,2.4771655E3,7.8057715E2,6.039326E2,2.4122085E3,1.0379634E3,2.307008E2,1.1340195E3,3.2648987E2,1.0522168E2,3.367495E2,1.0726968E3,6.946754E2,3.2986133E2,3.015266E2,1.1453768E2,1.5094592E2,7.489155E2,2.3812012E2,6.296117E1,1.9593982E2,5.8164062E1,3.800934E1,8.3950516E1,3.4325684E2,4.212378E2,6.7783E2,2.8324005E2,3.7998425E2,4.376606E2,2.0566797E2,7.869864E1,7.2377846E1,9.362729E1,7.223065E1,3.7762268E1,7.8140686E1,3.100578E2,3.8944214E1,6.9355896E1,1.0280176E2,1.1920546E1,1.7518265E1,1.2673425E2,2.8477173E1,2.6749023E1,1.5984512E1,3.366046E1,2.164735E1,1.3684029E1,2.4749023E1,3.5214355E1,1.2991895E2,1.6916895E2,1.2494457E2,8.318999E1,3.1226428E2,1.5766783E2,1.0798538E2,8.5444336E1,6.439903E1,0E0,0E0,0E0,0E0,0E0,0E0,0E0,0E0,0E0,0E0,0E0,0E0,0E0,0E0,0E0,0E0,0E0,0E0,0E0,0E0,0E0,0E0,0E0,0E0,0E0,0E0,0E0,0E0,0E0,0E0,0E0,0E0,0E0,0E0,0E0,0E0,0E0,0E0,0E0,0E0,0E0,0E0,0E0,0E0,0E0,0E0,0E0,0E0,0E0,0E0,0E0,0E0,0E0,0E0,0E0,0E0,0E0,0E0,0E0,0E0,0E0,0E0,0E0,0E0],"parents":[2147483647,0,0,1,1,2,2,3,3,4,4,5,5,6,6,7,7,8,8,9,9,10,10,11,11,12,12,13,13,14,14,15,15,16,16,17,17,18,18,19,19,20,20,21,21,22,22,23,23,24,24,25,25,26,26,27,27,28,28,29,29,30,30,31,31,32,32,33,33,34,34,35,35,36,36,37,37,38,38,39,39,40,40,41,41,42,42,43,43,44,44,45,45,46,46,47,47,48,48,49,49,50,50,51,51,52,52,53,53,54,54,55,55,56,56,57,57,58,58,59,59,60,60,61,61,62,62],"right_children":[2,4,6,8,10,12,14,16,18,20,22,24,26,28,30,32,34,36,38,40,42,44,46,48,50,52,54,56,58,60,62,64,66,68,70,72,74,76,78,80,82,84,86,88,90,92,94,96,98,100,102,104,106,108,110,112,114,116,118,120,122,124,126,-1,-1,-1,-1,-1,-1,-1,-1,-1,-1,-1,-1,-1,-1,-1,-1,-1,-1,-1,-1,-1,-1,-1,-1,-1,-1,-1,-1,-1,-1,-1,-1,-1,-1,-1,-1,-1,-1,-1,-1,-1,-1,-1,-1,-1,-1,-1,-1,-1,-1,-1,-1,-1,-1,-1,-1,-1,-1,-1,-1,-1,-1,-1,-1],"split_conditions":[3.2E1,1E0,1.83E2,2E0,6.5E1,1E0,1E0,1E0,3E0,3.1E1,1.79E2,1E0,2.4E1,1E0,2E0,6.5E1,4.6E1,1E0,4.6E1,1E0,1.83E2,1.6E1,4E0,2E0,2E0,1E0,5.9E1,2E0,2.44E2,4.6E1,5.3E1,1E0,5E0,1.83E2,1.83E2,5.1E1,1E0,1E0,7.6E1,1E0,2E1,2.1E1,1E0,1E0,1.38E2,1E0,1E0,7.1E1,2E0,2E0,1E0,1E0,2.3E1,2E0,1.35E2,5.2E1,5.7E1,1E0,1E0,1E0,1E0,3E0,1E0,1.4507033E-2,-3.8180925E-2,-4.594486E-2,-9.739509E-2,-2.8445343E-3,5.6454577E-2,-5.5702176E-2,5.061232E-4,5.6425583E-2,1.4306976E-2,2.2023328E-2,-2.2332437E-2,8.9738466E-2,4.6792842E-2,3.37854E-2,6.748325E-2,7.002854E-3,4.1478556E-2,9.353818E-2,6.815792E-2,5.4476686E-2,1.2430632E-2,8.3289765E-2,5.8444243E-2,-1.7787619E-2,1.0662159E-2,-6.1950482E-2,-1.4752497E-1,-1.8781587E-2,3.1083772E-2,5.4085076E-2,8.627391E-2,-1.1607828E-1,-1.0290425E-1,-6.948207E-2,1.9067898E-2,-8.807027E-2,-2.462194E-3,-1.8274276E-2,-7.8248784E-2,-2.566809E-2,3.0434236E-2,9.2547856E-2,2.1084623E-2,-1.03761934E-1,-4.5898955E-2,-4.2079803E-2,-7.65978E-2,-6.6883884E-2,-9.8207444E-2,-6.141122E-3,-6.311099E-2,1.5967418E-2,6.333853E-2,-4.2522505E-2,1.7841179E-2,-4.090437E-3,4.118032E-2,-5.2469652E-2,-1.4442012E-2,2.9183745E-2,5.473113E-2,-1.8749872E-2,1.6625071E-2],"split_indices":[2,1,11,4,10,1,8,8,4,10,11,8,10,1,4,10,10,14,10,7,11,2,1,3,4,7,11,4,11,10,10,18,2,11,11,10,18,14,10,4,2,2,14,4,11,3,13,11,4,3,18,3,10,3,11,10,10,7,3,3,1,4,1,0,0,0,0,0,0,0,0,0,0,0,0,0,0,0,0,0,0,0,0,0,0,0,0,0,0,0,0,0,0,0,0,0,0,0,0,0,0,0,0,0,0,0,0,0,0,0,0,0,0,0,0,0,0,0,0,0,0,0,0,0,0,0,0],"split_type":[0,0,0,0,0,0,0,0,0,0,0,0,0,0,0,0,0,0,0,0,0,0,0,0,0,0,0,0,0,0,0,0,0,0,0,0,0,0,0,0,0,0,0,0,0,0,0,0,0,0,0,0,0,0,0,0,0,0,0,0,0,0,0,0,0,0,0,0,0,0,0,0,0,0,0,0,0,0,0,0,0,0,0,0,0,0,0,0,0,0,0,0,0,0,0,0,0,0,0,0,0,0,0,0,0,0,0,0,0,0,0,0,0,0,0,0,0,0,0,0,0,0,0,0,0,0,0],"sum_hessian":[1.3065139E5,7.586662E4,5.4784773E4,3.0079076E4,4.5787543E4,1.6002706E4,3.878207E4,2.0728875E4,9.350201E3,2.9458535E4,1.6329007E4,8.312346E3,7.69036E3,1.9553912E4,1.9228156E4,1.6192816E4,4.536059E3,3.713836E3,5.6363647E3,1.3047712E4,1.6410824E4,1.054491E3,1.5274516E4,6.763621E3,1.5487252E3,5.3909106E2,7.151269E3,8.895787E3,1.0658126E4,1.1634143E4,7.594013E3,7.5292344E3,8.663582E3,1.8140273E3,2.7220317E3,2.1923176E3,1.5215183E3,1.2018997E3,4.4344653E3,1.043558E4,2.6121313E3,1.9372504E3,1.4473574E4,8.689745E2,1.8551646E2,1.2272343E4,3.002173E3,6.4741846E3,2.8943616E2,1.297057E3,2.5166818E2,3.3625223E2,2.028388E2,2.2454907E3,4.905778E3,7.152823E3,1.7429633E3,2.3731084E3,8.285018E3,8.620251E3,3.0138916E3,5.416474E3,2.1775393E3,2.2464126E3,5.282822E3,7.8004844E3,8.6309796E2,2.613614E2,1.5526659E3,2.5150174E2,2.47053E3,8.853925E2,1.3069252E3,6.160838E2,9.054346E2,9.350856E2,2.6681412E2,3.5815408E3,8.5292456E2,5.26926E3,5.166321E3,1.6213297E3,9.908017E2,1.389801E3,5.4744934E2,1.254044E4,1.9331332E3,6.819292E2,1.8704527E2,1.5724687E2,2.82696E1,5.321743E2,1.1740169E4,2.693156E3,3.0901685E2,2.9913413E3,3.4828435E3,2.6778925E2,2.1646906E1,1.2493154E3,4.7741554E1,1.5220453E2,9.946366E1,2.8588013E2,5.0372116E1,1.21395355E2,8.144346E1,2.1324946E3,1.1299617E2,3.2642712E3,1.6415067E3,4.220956E3,2.9318672E3,1.1700322E3,5.729311E2,1.9139603E3,4.5914816E2,7.3148887E3,9.701287E2,7.7673677E3,8.528833E2,1.6456699E3,1.3682217E3,2.2285278E3,3.1879463E3,1.3455042E3,8.32035E2],"tree_param":{"num_deleted":"0","num_feature":"19","num_nodes":"127","size_leaf_vector":"1"}},{"base_weights":[-1.0373424E-3,2.226382E-1,-3.748833E-1,-8.057301E-2,4.2154798E-1,-1.5885015E-1,-7.702712E-1,2.525939E-1,-3.2050484E-1,5.6021076E-1,3.1104836E-1,-2.8519207E-1,2.819882E-1,-9.522449E-1,-5.742269E-1,1.3555628E-1,5.524419E-1,-4.7036666E-1,-6.376115E-2,6.005918E-1,2.969832E-1,2.7810884E-1,7.239375E-1,-4.9005616E-1,-1.3303372E-1,4.9638793E-1,1.8759571E-1,-1.0580761E0,-7.9776996E-1,-9.2687374E-1,-4.8948652E-1,3.2468438E-1,-2.5708217E-3,7.1076906E-1,4.766347E-1,-3.2074022E-1,-6.198103E-1,-4.5069778E-1,3.6836263E-2,7.318082E-1,5.089729E-1,1.2775606E-1,3.6442894E-1,3.2808685E-1,-1.7679072E-3,4.0573755E-1,8.131241E-1,-6.8776107E-1,-2.874247E-1,-8.03765E-1,-9.393684E-2,5.3868973E-1,1.9061159E-1,-3.368665E-1,2.2962464E-1,-1.0759647E0,-7.0049167E-1,-1.0561435E0,-6.809796E-1,-9.63861E-1,-1.9419616E-1,-5.565918E-1,2.3539087E-1,3.805595E-2,2.9623858E-3,-1.07809035E-2,1.5101095E-2,5.9306897E-2,8.083117E-2,5.53666E-2,6.7629754E-3,2.2125281E-3,-3.8309008E-2,-5.4461326E-2,-8.81153E-2,-2.7245888E-2,-7.803034E-2,-3.5567482E-3,3.4971606E-2,5.5706054E-2,8.063909E-2,5.8104903E-2,3.320008E-2,5.923865E-2,8.408337E-3,2.2231998E-2,5.0296593E-2,3.673259E-2,4.0095574E-3,-3.0533208E-2,1.418377E-2,6.702256E-2,3.14792E-2,6.363389E-2,9.2784464E-2,-7.2953366E-2,-1.5531105E-2,-1.24061825E-2,-5.885556E-2,-9.023642E-2,7.664586E-3,-1.4092113E-2,3.77781E-2,4.8699584E-2,6.8710074E-2,3.5619576E-2,-2.721229E-2,-5.7602942E-2,-9.404573E-3,1.9561E-2,7.217838E-2,-5.330956E-2,-1.0820694E-1,-7.628002E-2,-3.5377536E-3,-7.654833E-3,-1.0668583E-1,-4.554368E-2,-9.089236E-2,-9.9375404E-2,-7.794983E-2,-4.421992E-2,3.581452E-2,-6.0593396E-2,-5.2120625E-3,3.0252638E-3,5.9375107E-2],"categories":[],"categories_nodes":[],"categories_segments":[],"categories_sizes":[],"default_left":[0,0,0,0,0,0,0,0,0,0,0,0,0,0,0,0,0,0,0,0,0,0,0,0,0,0,0,0,0,0,0,0,0,0,0,0,0,0,0,0,0,0,0,0,0,0,0,0,0,0,0,0,0,0,0,0,0,0,0,0,0,0,0,0,0,0,0,0,0,0,0,0,0,0,0,0,0,0,0,0,0,0,0,0,0,0,0,0,0,0,0,0,0,0,0,0,0,0,0,0,0,0,0,0,0,0,0,0,0,0,0,0,0,0,0,0,0,0,0,0,0,0,0,0,0,0,0],"id":9,"left_children":[1,3,5,7,9,11,13,15,17,19,21,23,25,27,29,31,33,35,37,39,41,43,45,47,49,51,53,55,57,59,61,63,65,67,69,71,73,75,77,79,81,83,85,87,89,91,93,95,97,99,101,103,105,107,109,111,113,115,117,119,121,123,125,-1,-1,-1,-1,-1,-1,-1,-1,-1,-1,-1,-1,-1,-1,-1,-1,-1,-1,-1,-1,-1,-1,-1,-1,-1,-1,-1,-1,-1,-1,-1,-1,-1,-1,-1,-1,-1,-1,-1,-1,-1,-1,-1,-1,-1,-1,-1,-1,-1,-1,-1,-1,-1,-1,-1,-1,-1,-1,-1,-1,-1,-1,-1,-1],"loss_changes":[1.0783056E4,4.866023E3,4.1231245E3,2.5550093E3,7.463242E2,1.7387734E3,6.0791113E2,4.6952948E2,7.148981E2,2.2947363E2,3.6858276E2,7.562883E2,1.4064624E2,1.4373633E2,2.4497705E2,2.5146983E2,4.4747314E1,2.621494E2,2.6663455E2,2.2480762E2,3.27742E1,3.5128662E2,5.6507446E1,4.1406152E2,3.6507104E2,2.7386597E1,1.0654532E2,3.279834E1,1.0790112E2,4.2903442E1,3.2233606E2,6.69729E1,8.994732E1,1.3460693E1,8.0089966E1,1.25382996E2,1.1485474E2,8.282312E1,1.2318388E2,9.98916E1,1.4053662E2,1.6609716E1,4.035678E1,2.4078564E2,1.6596631E2,1.03836975E1,3.1115356E1,1.1628345E2,2.512284E2,6.663461E1,2.9169122E2,1.3984131E1,2.0004951E1,2.0780289E1,7.472858E1,1.5971191E1,1.0447861E1,1.1661255E1,1.2718103E2,7.56604E0,1.0797159E1,1.5088464E2,4.1292694E1,0E0,0E0,0E0,0E0,0E0,0E0,0E0,0E0,0E0,0E0,0E0,0E0,0E0,0E0,0E0,0E0,0E0,0E0,0E0,0E0,0E0,0E0,0E0,0E0,0E0,0E0,0E0,0E0,0E0,0E0,0E0,0E0,0E0,0E0,0E0,0E0,0E0,0E0,0E0,0E0,0E0,0E0,0E0,0E0,0E0,0E0,0E0,0E0,0E0,0E0,0E0,0E0,0E0,0E0,0E0,0E0,0E0,0E0,0E0,0E0,0E0,0E0,0E0,0E0],"parents":[2147483647,0,0,1,1,2,2,3,3,4,4,5,5,6,6,7,7,8,8,9,9,10,10,11,11,12,12,13,13,14,14,15,15,16,16,17,17,18,18,19,19,20,20,21,21,22,22,23,23,24,24,25,25,26,26,27,27,28,28,29,29,30,30,31,31,32,32,33,33,34,34,35,35,36,36,37,37,38,38,39,39,40,40,41,41,42,42,43,43,44,44,45,45,46,46,47,47,48,48,49,49,50,50,51,51,52,52,53,53,54,54,55,55,56,56,57,57,58,58,59,59,60,60,61,61,62,62],"right_children":[2,4,6,8,10,12,14,16,18,20,22,24,26,28,30,32,34,36,38,40,42,44,46,48,50,52,54,56,58,60,62,64,66,68,70,72,74,76,78,80,82,84,86,88,90,92,94,96,98,100,102,104,106,108,110,112,114,116,118,120,122,124,126,-1,-1,-1,-1,-1,-1,-1,-1,-1,-1,-1,-1,-1,-1,-1,-1,-1,-1,-1,-1,-1,-1,-1,-1,-1,-1,-1,-1,-1,-1,-1,-1,-1,-1,-1,-1,-1,-1,-1,-1,-1,-1,-1,-1,-1,-1,-1,-1,-1,-1,-1,-1,-1,-1,-1,-1,-1,-1,-1,-1,-1,-1,-1,-1],"split_conditions":[4E1,1E0,3E0,2E0,2E0,4E0,1E0,4E0,1E0,1E0,4E0,1E0,1E0,1E0,5.9E1,1E0,1E0,3E0,1.83E2,1E0,2E0,3E1,3E0,1E0,7.1E1,4.9E1,1.86E2,2E0,7E1,2E0,4E0,1.1E1,1E0,1E0,1.8E1,1E0,2E1,2.4E1,3E0,3E0,1.1E1,1E0,3E0,4E0,1.83E2,2.63E2,1E0,2E0,1E0,1E0,2E0,4E0,3.63E2,1E0,2E0,1E0,3E0,1E0,1E0,4.3E1,3E0,1E0,2E0,3.805595E-2,2.9623858E-3,-1.07809035E-2,1.5101095E-2,5.9306897E-2,8.083117E-2,5.53666E-2,6.7629754E-3,2.2125281E-3,-3.8309008E-2,-5.4461326E-2,-8.81153E-2,-2.7245888E-2,-7.803034E-2,-3.5567482E-3,3.4971606E-2,5.5706054E-2,8.063909E-2,5.8104903E-2,3.320008E-2,5.923865E-2,8.408337E-3,2.2231998E-2,5.0296593E-2,3.673259E-2,4.0095574E-3,-3.0533208E-2,1.418377E-2,6.702256E-2,3.14792E-2,6.363389E-2,9.2784464E-2,-7.2953366E-2,-1.5531105E-2,-1.24061825E-2,-5.885556E-2,-9.023642E-2,7.664586E-3,-1.4092113E-2,3.77781E-2,4.8699584E-2,6.8710074E-2,3.5619576E-2,-2.721229E-2,-5.7602942E-2,-9.404573E-3,1.9561E-2,7.217838E-2,-5.330956E-2,-1.0820694E-1,-7.628002E-2,-3.5377536E-3,-7.654833E-3,-1.0668583E-1,-4.554368E-2,-9.089236E-2,-9.9375404E-2,-7.794983E-2,-4.421992E-2,3.581452E-2,-6.0593396E-2,-5.2120625E-3,3.0252638E-3,5.9375107E-2],"split_indices":[2,1,0,0,0,5,1,5,4,14,5,1,9,4,11,0,18,0,11,0,5,2,1,4,11,2,11,3,11,3,5,2,4,16,2,12,2,2,4,1,2,9,1,0,11,11,3,3,18,3,3,4,11,1,3,9,5,9,18,11,5,3,4,0,0,0,0,0,0,0,0,0,0,0,0,0,0,0,0,0,0,0,0,0,0,0,0,0,0,0,0,0,0,0,0,0,0,0,0,0,0,0,0,0,0,0,0,0,0,0,0,0,0,0,0,0,0,0,0,0,0,0,0,0,0,0,0],"split_type":[0,0,0,0,0,0,0,0,0,0,0,0,0,0,0,0,0,0,0,0,0,0,0,0,0,0,0,0,0,0,0,0,0,0,0,0,0,0,0,0,0,0,0,0,0,0,0,0,0,0,0,0,0,0,0,0,0,0,0,0,0,0,0,0,0,0,0,0,0,0,0,0,0,0,0,0,0,0,0,0,0,0,0,0,0,0,0,0,0,0,0,0,0,0,0,0,0,0,0,0,0,0,0,0,0,0,0,0,0,0,0,0,0,0,0,0,0,0,0,0,0,0,0,0,0,0,0],"sum_hessian":[1.2895076E5,8.067973E4,4.827103E4,3.1960633E4,4.8719094E4,3.1216354E4,1.7054678E4,1.3380523E4,1.8580111E4,2.1604352E4,2.7114742E4,2.4263047E4,6.9533066E3,8.842744E3,8.211935E3,9.625082E3,3.755441E3,1.173155E4,6.848561E3,1.8729783E4,2.874569E3,2.5112953E4,2.0017888E3,1.033965E4,1.3923397E4,2.124205E3,4.8291016E3,5.244126E3,3.598618E3,1.5890742E3,6.6228604E3,4.0619622E3,5.56312E3,1.2132114E3,2.5422295E3,5.8637607E3,5.867789E3,1.4124089E3,5.436152E3,7.697892E3,1.1031891E4,8.2000366E2,2.0545654E3,2.1307812E4,3.8051396E3,4.394539E2,1.562335E3,5.232233E3,5.107417E3,7.658147E2,1.3157582E4,1.8653822E3,2.588229E2,3.5775876E2,4.471343E3,4.992368E3,2.5175755E2,1.1177632E3,2.4808547E3,1.5124088E3,7.666541E1,6.061913E3,5.609476E2,3.414983E3,6.4697925E2,3.301289E3,2.2618308E3,5.530058E2,6.602056E2,2.139017E3,4.032124E2,9.0234717E2,4.9614136E3,4.559074E3,1.3087147E3,9.178794E2,4.945296E2,4.4152925E3,1.0208597E3,2.3052188E3,5.3926733E3,7.8375684E3,3.1943228E3,6.937407E1,7.5062964E2,1.0154937E3,1.0390718E3,1.8752494E4,2.5553184E3,1.2216338E3,2.5835059E3,1.108142E2,3.2863968E2,6.17425E2,9.4491E2,4.8512637E3,3.8096912E2,3.312049E3,1.795368E3,6.8866473E2,7.714996E1,1.19664E4,1.1911824E3,1.386666E3,4.7871622E2,1.907835E2,6.803942E1,1.795456E2,1.7821317E2,4.1835986E3,2.8774405E2,5.649824E1,4.93587E3,2.3005858E2,2.1698978E1,1.2181938E1,1.1055812E3,1.2485021E3,1.2323527E3,1.2976191E3,2.1478961E2,5.3046696E1,2.3618721E1,5.5216416E3,5.402712E2,3.574276E2,2.0351997E2],"tree_param":{"num_deleted":"0","num_feature":"19","num_nodes":"127","size_leaf_vector":"1"}},{"base_weights":[-1.5680509E-3,2.0216683E-1,-3.4365007E-1,-8.026414E-2,3.870938E-1,-1.4521271E-1,-7.19099E-1,2.1856871E-1,-2.9576477E-1,3.418666E-1,6.951984E-1,-2.5999066E-1,2.5360465E-1,-8.982832E-1,-5.3153896E-1,5.277858E-1,1.1531281E-1,1.9908583E-2,-3.8502377E-1,4.868104E-1,2.24231E-1,7.596318E-1,4.3509835E-1,-9.486906E-2,-4.86678E-1,3.5988763E-1,6.370014E-3,-4.5314312E-2,-9.1528505E-1,-1.322806E-1,-5.97911E-1,3.7253794E-1,7.115292E-1,2.93023E-1,-6.887206E-2,-3.719775E-1,1.9243479E-1,-5.029373E-1,-1.388594E-1,2.6002645E-1,5.4810685E-1,6.1436918E-2,3.0383077E-1,8.673559E-1,5.12067E-1,-2.613198E-1,4.886356E-1,-6.9255155E-1,-5.7456534E-2,-1.3592394E-1,-5.7488E-1,4.8808065E-1,2.2890006E-1,1.5005901E-1,-2.3506428E-1,-3.865658E-1,5.9544027E-1,-9.961496E-1,-7.8751105E-1,-3.7450558E-1,2.3855482E-1,9.675513E-2,-6.357773E-1,4.7687333E-2,1.4435956E-2,4.2842835E-2,7.648408E-2,3.3750735E-2,4.723698E-4,-2.1339995E-3,-4.8264123E-2,-1.7877184E-2,-8.08663E-2,4.315127E-3,4.3922532E-2,-4.167461E-2,-7.986045E-2,-4.8538625E-2,-6.063981E-3,1.868101E-2,8.264805E-2,6.80042E-2,3.903997E-2,2.040837E-3,5.7253648E-2,4.52356E-2,1.2035538E-2,7.816558E-2,9.1945805E-2,1.970144E-2,6.0233325E-2,1.7205065E-2,-8.952697E-2,4.062435E-2,7.9323046E-2,4.4281345E-2,-7.88721E-2,-1.0384365E-2,3.024125E-2,-1.2482385E-3,-3.0196717E-2,1.7745443E-2,-6.1630733E-2,5.2776653E-2,1.853449E-2,1.5721802E-3,2.9036183E-2,-1.15332864E-1,1.6522745E-2,-3.926505E-2,-2.2486737E-3,-7.064713E-2,-1.0238463E-2,8.8035606E-2,-2.9024825E-2,-1.0149526E-1,-7.184323E-2,-1.01756476E-1,-6.627082E-2,-8.337164E-2,-2.6956186E-2,5.0885856E-2,-1.1736335E-3,-6.101198E-3,5.9546806E-2,-6.828115E-2,-9.229804E-3],"categories":[],"categories_nodes":[],"categories_segments":[],"categories_sizes":[],"default_left":[0,0,0,0,0,0,0,0,0,0,0,0,0,0,0,0,0,0,0,0,0,0,0,0,0,0,0,0,0,0,0,0,0,0,0,0,0,0,0,0,0,0,0,0,0,0,0,0,0,0,0,0,0,0,0,0,0,0,0,0,0,0,0,0,0,0,0,0,0,0,0,0,0,0,0,0,0,0,0,0,0,0,0,0,0,0,0,0,0,0,0,0,0,0,0,0,0,0,0,0,0,0,0,0,0,0,0,0,0,0,0,0,0,0,0,0,0,0,0,0,0,0,0,0,0,0,0],"id":10,"left_children":[1,3,5,7,9,11,13,15,17,19,21,23,25,27,29,31,33,35,37,39,41,43,45,47,49,51,53,55,57,59,61,63,65,67,69,71,73,75,77,79,81,83,85,87,89,91,93,95,97,99,101,103,105,107,109,111,113,115,117,119,121,123,125,-1,-1,-1,-1,-1,-1,-1,-1,-1,-1,-1,-1,-1,-1,-1,-1,-1,-1,-1,-1,-1,-1,-1,-1,-1,-1,-1,-1,-1,-1,-1,-1,-1,-1,-1,-1,-1,-1,-1,-1,-1,-1,-1,-1,-1,-1,-1,-1,-1,-1,-1,-1,-1,-1,-1,-1,-1,-1,-1,-1,-1,-1,-1,-1],"loss_changes":[8.854045E3,4.158581E3,3.5328564E3,2.0290005E3,6.70251E2,1.4202334E3,5.505781E2,4.2143408E2,5.157998E2,7.153218E2,1.028728E2,9.017323E2,1.8219809E2,1.2154541E2,2.1227612E2,9.399634E1,3.239899E2,2.7295163E2,4.141499E2,2.6115527E2,3.0014197E2,1.3114087E2,4.5799774E1,3.1166833E2,3.140227E2,8.1315E1,7.238939E1,3.6287712E1,8.4149414E1,1.0280968E2,1.8079956E2,4.2622025E1,2.2495789E1,6.460498E1,9.559566E1,1.0397301E2,1.0324831E2,2.4554663E2,1.2528284E2,1.6580011E2,3.0760742E2,1.5952353E2,4.2387244E2,1.4626465E1,4.249539E1,2.4357813E1,2.8233917E1,9.000198E1,2.190446E2,4.1837666E1,2.5295264E2,2.9335815E1,3.1445656E1,2.6052265E1,2.607177E1,9.764715E0,1.4815498E1,2.554004E1,9.093738E1,3.3129204E1,3.061547E1,2.8050169E1,1.6649805E2,0E0,0E0,0E0,0E0,0E0,0E0,0E0,0E0,0E0,0E0,0E0,0E0,0E0,0E0,0E0,0E0,0E0,0E0,0E0,0E0,0E0,0E0,0E0,0E0,0E0,0E0,0E0,0E0,0E0,0E0,0E0,0E0,0E0,0E0,0E0,0E0,0E0,0E0,0E0,0E0,0E0,0E0,0E0,0E0,0E0,0E0,0E0,0E0,0E0,0E0,0E0,0E0,0E0,0E0,0E0,0E0,0E0,0E0,0E0,0E0,0E0,0E0,0E0,0E0],"parents":[2147483647,0,0,1,1,2,2,3,3,4,4,5,5,6,6,7,7,8,8,9,9,10,10,11,11,12,12,13,13,14,14,15,15,16,16,17,17,18,18,19,19,20,20,21,21,22,22,23,23,24,24,25,25,26,26,27,27,28,28,29,29,30,30,31,31,32,32,33,33,34,34,35,35,36,36,37,37,38,38,39,39,40,40,41,41,42,42,43,43,44,44,45,45,46,46,47,47,48,48,49,49,50,50,51,51,52,52,53,53,54,54,55,55,56,56,57,57,58,58,59,59,60,60,61,61,62,62],"right_children":[2,4,6,8,10,12,14,16,18,20,22,24,26,28,30,32,34,36,38,40,42,44,46,48,50,52,54,56,58,60,62,64,66,68,70,72,74,76,78,80,82,84,86,88,90,92,94,96,98,100,102,104,106,108,110,112,114,116,118,120,122,124,126,-1,-1,-1,-1,-1,-1,-1,-1,-1,-1,-1,-1,-1,-1,-1,-1,-1,-1,-1,-1,-1,-1,-1,-1,-1,-1,-1,-1,-1,-1,-1,-1,-1,-1,-1,-1,-1,-1,-1,-1,-1,-1,-1,-1,-1,-1,-1,-1,-1,-1,-1,-1,-1,-1,-1,-1,-1,-1,-1,-1,-1,-1,-1,-1],"split_conditions":[4E1,1E0,3E0,2E0,1E0,4E0,1E0,4.7E1,4.4E1,2E0,6.3E1,4.6E1,5E1,1E0,2.6E1,4E0,1E0,1.83E2,3E0,2.9E1,1E0,2.4E1,2E0,7.1E1,1E0,1E0,1E0,4E0,2E0,1E0,1E0,1.8E1,2E0,1.7E1,2.4E1,1.38E2,2E0,7E0,1.83E2,4E0,6.5E1,4E0,6.7E1,4E0,1.83E2,1E0,4E0,2.3E1,1E0,5.8E1,1E0,4.9E1,2E0,7.1E1,1E0,1.61E2,5E1,1E0,7.1E1,5.4E1,2.4E1,4E0,1E0,4.7687333E-2,1.4435956E-2,4.2842835E-2,7.648408E-2,3.3750735E-2,4.723698E-4,-2.1339995E-3,-4.8264123E-2,-1.7877184E-2,-8.08663E-2,4.315127E-3,4.3922532E-2,-4.167461E-2,-7.986045E-2,-4.8538625E-2,-6.063981E-3,1.868101E-2,8.264805E-2,6.80042E-2,3.903997E-2,2.040837E-3,5.7253648E-2,4.52356E-2,1.2035538E-2,7.816558E-2,9.1945805E-2,1.970144E-2,6.0233325E-2,1.7205065E-2,-8.952697E-2,4.062435E-2,7.9323046E-2,4.4281345E-2,-7.88721E-2,-1.0384365E-2,3.024125E-2,-1.2482385E-3,-3.0196717E-2,1.7745443E-2,-6.1630733E-2,5.2776653E-2,1.853449E-2,1.5721802E-3,2.9036183E-2,-1.15332864E-1,1.6522745E-2,-3.926505E-2,-2.2486737E-3,-7.064713E-2,-1.0238463E-2,8.8035606E-2,-2.9024825E-2,-1.0149526E-1,-7.184323E-2,-1.01756476E-1,-6.627082E-2,-8.337164E-2,-2.6956186E-2,5.0885856E-2,-1.1736335E-3,-6.101198E-3,5.9546806E-2,-6.828115E-2,-9.229804E-3],"split_indices":[2,1,0,0,7,5,1,10,10,0,10,10,10,9,10,5,0,11,5,10,3,2,7,11,0,0,0,5,5,7,9,2,17,2,2,11,17,2,11,5,10,5,10,3,11,14,1,10,3,10,9,2,17,11,1,11,10,3,11,11,10,5,3,0,0,0,0,0,0,0,0,0,0,0,0,0,0,0,0,0,0,0,0,0,0,0,0,0,0,0,0,0,0,0,0,0,0,0,0,0,0,0,0,0,0,0,0,0,0,0,0,0,0,0,0,0,0,0,0,0,0,0,0,0,0,0,0],"split_type":[0,0,0,0,0,0,0,0,0,0,0,0,0,0,0,0,0,0,0,0,0,0,0,0,0,0,0,0,0,0,0,0,0,0,0,0,0,0,0,0,0,0,0,0,0,0,0,0,0,0,0,0,0,0,0,0,0,0,0,0,0,0,0,0,0,0,0,0,0,0,0,0,0,0,0,0,0,0,0,0,0,0,0,0,0,0,0,0,0,0,0,0,0,0,0,0,0,0,0,0,0,0,0,0,0,0,0,0,0,0,0,0,0,0,0,0,0,0,0,0,0,0,0,0,0,0,0],"sum_hessian":[1.2703963E5,7.962032E4,4.7419316E4,3.1504865E4,4.8115453E4,3.1023658E4,1.639566E4,1.320022E4,1.8304645E4,4.1958418E4,6.1570356E3,2.409078E4,6.932877E3,8.383117E3,8.0125425E3,3.3034316E3,9.896788E3,4.035053E3,1.4269592E4,1.8795973E4,2.3162445E4,4.9330684E3,1.2239673E3,1.3938928E4,1.0151853E4,4.84823E3,2.084647E3,1.6390346E2,8.219214E3,1.1425531E3,6.8699897E3,1.7922002E3,1.5112314E3,5.0366255E3,4.8601626E3,1.2330577E3,2.801995E3,9.647408E3,4.622184E3,4.0004392E3,1.4795533E4,7.6069023E3,1.5555543E4,3.435611E3,1.497457E3,8.7098595E1,1.1368687E3,8.200905E2,1.3118838E4,2.0403805E3,8.1114717E3,2.4488745E3,2.3993555E3,1.3071052E3,7.775418E2,1.07205124E2,5.6698338E1,5.029433E3,3.189781E3,6.911154E2,4.5143765E2,3.550455E2,6.514944E3,1.2290999E3,5.631004E2,2.4091801E2,1.2703134E3,4.3632144E3,6.7341125E2,4.3603193E3,4.9984357E2,8.558207E2,3.7723703E2,1.7466324E3,1.0553628E3,7.4717075E3,2.1757004E3,8.5024414E2,3.77194E3,3.5437285E3,4.5671085E2,8.0542085E3,6.7413247E3,7.042597E3,5.6430505E2,8.595739E3,6.9598037E3,1.3050338E3,2.1305774E3,3.34199E2,1.163258E3,5.21662E1,3.4932396E1,8.966586E2,2.4021004E2,6.3758663E1,7.5633185E2,1.1621533E4,1.4973043E3,1.1709421E3,8.694385E2,4.2317563E2,7.688296E3,2.1643984E3,2.8447614E2,5.3723346E2,1.8621221E3,1.4173523E1,1.2929316E3,4.4604E2,3.3150177E2,4.9733574E1,5.747155E1,4.290297E1,1.3795366E1,4.70802E3,3.2141306E2,1.119328E3,2.070453E3,1.2726913E2,5.6384625E2,2.1654514E2,2.3489252E2,2.7038672E2,8.465878E1,5.9957954E3,5.1914874E2],"tree_param":{"num_deleted":"0","num_feature":"19","num_nodes":"127","size_leaf_vector":"1"}},{"base_weights":[1.7434121E-3,1.4664935E-1,-3.6761218E-1,-4.7331728E-2,3.3511105E-1,-5.755284E-1,-7.68166E-2,-1.4254229E-1,3.1245136E-1,1.8536949E-1,5.2855057E-1,-8.0892575E-1,-3.5501462E-1,-3.3877563E-1,1.7582968E-1,-3.8063708E-1,1.6389319E-3,4.1250864E-1,8.9033216E-2,4.9204794E-1,9.9794954E-2,3.574959E-1,6.0513574E-1,-8.6168355E-1,-4.2975298E-1,2.657921E-1,-3.9195433E-1,-4.882584E-1,-1.1219256E-1,3.9308473E-1,2.2271227E-3,-5.7107425E-1,-1.8575326E-1,2.8943065E-1,-3.254166E-2,5.3871083E-1,2.9628456E-1,3.8098687E-1,4.296285E-3,3.992663E-1,6.703422E-1,3.238853E-1,-4.2117364E-3,2.967087E-1,8.5827994E-1,7.149088E-1,4.6025178E-1,-9.0046513E-1,-6.0487705E-1,-6.3037306E-1,-8.6977065E-2,1.1876787E-1,7.4951774E-1,-1.0570361E-1,-4.5136648E-1,-2.7370858E-1,-6.571032E-1,6.9954276E-1,-1.5464038E-1,3.2663363E-1,8.140485E-1,-8.308853E-2,2.4891901E-1,-2.5421528E-2,-6.953602E-2,4.90949E-3,-3.232354E-2,4.0626846E-2,2.4038834E-2,-3.0807508E-4,-3.252122E-2,5.9096027E-2,4.0145345E-2,1.8821469E-2,3.8760696E-2,2.9223962E-2,5.079139E-2,-6.533436E-3,3.0690981E-2,2.980958E-2,5.05944E-2,4.2131938E-2,7.346484E-2,2.7280573E-2,3.702062E-2,-1.1587762E-2,2.1889625E-2,1.7665355E-2,4.2043347E-2,7.4806206E-2,9.486707E-2,6.812873E-2,9.077994E-2,6.448851E-2,3.9913293E-2,-8.219745E-2,-9.9122494E-2,-4.8837345E-2,-8.042311E-2,-2.770069E-2,-6.9033995E-2,3.3058193E-2,-3.2306228E-2,5.908826E-2,4.999896E-3,5.938791E-2,8.797719E-2,-1.5973112E-2,4.2071678E-2,-4.9358323E-2,5.1902286E-3,5.5747624E-2,-2.9698847E-2,-3.182184E-2,-6.910696E-2,9.2567354E-2,4.1067183E-2,-2.2972835E-2,2.8030127E-2,1.3551879E-2,4.7322843E-2,8.902068E-2,1.6987992E-2,-1.5592209E-2,1.2250879E-2,1.0167728E-2,4.223488E-2],"categories":[],"categories_nodes":[],"categories_segments":[],"categories_sizes":[],"default_left":[0,0,0,0,0,0,0,0,0,0,0,0,0,0,0,0,0,0,0,0,0,0,0,0,0,0,0,0,0,0,0,0,0,0,0,0,0,0,0,0,0,0,0,0,0,0,0,0,0,0,0,0,0,0,0,0,0,0,0,0,0,0,0,0,0,0,0,0,0,0,0,0,0,0,0,0,0,0,0,0,0,0,0,0,0,0,0,0,0,0,0,0,0,0,0,0,0,0,0,0,0,0,0,0,0,0,0,0,0,0,0,0,0,0,0,0,0,0,0,0,0,0,0,0,0,0,0],"id":11,"left_children":[1,3,5,7,9,11,13,15,17,19,21,23,25,27,29,31,33,35,37,39,41,43,45,47,49,51,53,55,57,59,61,63,65,67,69,71,73,75,77,79,81,83,85,87,89,91,93,95,97,99,101,103,105,107,109,111,113,115,117,119,121,123,125,-1,-1,-1,-1,-1,-1,-1,-1,-1,-1,-1,-1,-1,-1,-1,-1,-1,-1,-1,-1,-1,-1,-1,-1,-1,-1,-1,-1,-1,-1,-1,-1,-1,-1,-1,-1,-1,-1,-1,-1,-1,-1,-1,-1,-1,-1,-1,-1,-1,-1,-1,-1,-1,-1,-1,-1,-1,-1,-1,-1,-1,-1,-1,-1],"loss_changes":[6.7073975E3,3.2905496E3,2.1349736E3,1.5194543E3,1.32231E3,1.0594346E3,9.744756E2,1.2040703E3,2.0745978E2,6.753392E2,2.607378E2,1.9971436E2,2.4293774E2,2.4478156E2,2.826963E2,4.9086096E2,2.1491293E2,9.3869995E1,7.105922E1,9.2604004E1,4.689813E2,1.8735022E2,2.1848242E2,8.6893555E1,8.4095795E1,4.2247654E1,1.6993152E2,1.5758374E2,9.915725E1,9.286182E1,8.772785E1,2.632954E2,2.1116325E2,1.3192184E1,1.6837903E2,2.1795227E1,3.288504E1,7.1299133E0,4.6950954E1,3.97287E1,3.0438293E1,1.4991272E1,3.42444E2,8.158124E1,5.9311523E0,5.0132812E1,6.6697876E1,5.3507324E1,2.6430695E1,1.6162354E1,4.475778E1,1.4831154E1,2.286705E0,4.896331E1,1.7587329E2,3.731044E1,2.7824585E1,8.9631195E0,8.93077E1,8.0537384E1,2.2082397E1,4.6397152E1,2.7309006E1,0E0,0E0,0E0,0E0,0E0,0E0,0E0,0E0,0E0,0E0,0E0,0E0,0E0,0E0,0E0,0E0,0E0,0E0,0E0,0E0,0E0,0E0,0E0,0E0,0E0,0E0,0E0,0E0,0E0,0E0,0E0,0E0,0E0,0E0,0E0,0E0,0E0,0E0,0E0,0E0,0E0,0E0,0E0,0E0,0E0,0E0,0E0,0E0,0E0,0E0,0E0,0E0,0E0,0E0,0E0,0E0,0E0,0E0,0E0,0E0,0E0,0E0,0E0,0E0],"parents":[2147483647,0,0,1,1,2,2,3,3,4,4,5,5,6,6,7,7,8,8,9,9,10,10,11,11,12,12,13,13,14,14,15,15,16,16,17,17,18,18,19,19,20,20,21,21,22,22,23,23,24,24,25,25,26,26,27,27,28,28,29,29,30,30,31,31,32,32,33,33,34,34,35,35,36,36,37,37,38,38,39,39,40,40,41,41,42,42,43,43,44,44,45,45,46,46,47,47,48,48,49,49,50,50,51,51,52,52,53,53,54,54,55,55,56,56,57,57,58,58,59,59,60,60,61,61,62,62],"right_children":[2,4,6,8,10,12,14,16,18,20,22,24,26,28,30,32,34,36,38,40,42,44,46,48,50,52,54,56,58,60,62,64,66,68,70,72,74,76,78,80,82,84,86,88,90,92,94,96,98,100,102,104,106,108,110,112,114,116,118,120,122,124,126,-1,-1,-1,-1,-1,-1,-1,-1,-1,-1,-1,-1,-1,-1,-1,-1,-1,-1,-1,-1,-1,-1,-1,-1,-1,-1,-1,-1,-1,-1,-1,-1,-1,-1,-1,-1,-1,-1,-1,-1,-1,-1,-1,-1,-1,-1,-1,-1,-1,-1,-1,-1,-1,-1,-1,-1,-1,-1,-1,-1,-1,-1,-1,-1],"split_conditions":[3E0,2E0,1E0,4E0,3E0,1E0,1E0,1E0,5E1,5.1E1,3E1,2E0,1E0,1E0,6.2E1,1E0,1E0,1E0,1E0,4E0,1E0,4E0,6.3E1,1E0,4E0,4E0,2.6E1,6.6E1,1E0,4E0,3E0,4E1,4.4E1,2.6E1,6.2E1,4.5E1,2E0,3E0,4E0,1E0,2E0,3E0,1E0,1E0,1E0,4E0,1E0,4E0,4E0,4E1,1E0,2.5E1,3.5E1,4E0,2E0,2.8E1,1E0,4.7E1,3E0,3.3E1,5.5E1,4E0,3E0,-2.5421528E-2,-6.953602E-2,4.90949E-3,-3.232354E-2,4.0626846E-2,2.4038834E-2,-3.0807508E-4,-3.252122E-2,5.9096027E-2,4.0145345E-2,1.8821469E-2,3.8760696E-2,2.9223962E-2,5.079139E-2,-6.533436E-3,3.0690981E-2,2.980958E-2,5.05944E-2,4.2131938E-2,7.346484E-2,2.7280573E-2,3.702062E-2,-1.1587762E-2,2.1889625E-2,1.7665355E-2,4.2043347E-2,7.4806206E-2,9.486707E-2,6.812873E-2,9.077994E-2,6.448851E-2,3.9913293E-2,-8.219745E-2,-9.9122494E-2,-4.8837345E-2,-8.042311E-2,-2.770069E-2,-6.9033995E-2,3.3058193E-2,-3.2306228E-2,5.908826E-2,4.999896E-3,5.938791E-2,8.797719E-2,-1.5973112E-2,4.2071678E-2,-4.9358323E-2,5.1902286E-3,5.5747624E-2,-2.9698847E-2,-3.182184E-2,-6.910696E-2,9.2567354E-2,4.1067183E-2,-2.2972835E-2,2.8030127E-2,1.3551879E-2,4.7322843E-2,8.902068E-2,1.6987992E-2,-1.5592209E-2,1.2250879E-2,1.0167728E-2,4.223488E-2],"split_indices":[0,3,3,5,1,1,1,1,10,10,10,4,9,5,10,4,9,0,9,5,0,5,10,8,5,5,10,10,9,5,5,10,10,10,10,10,4,1,1,4,17,4,1,8,8,5,0,0,0,10,14,10,10,5,4,10,12,10,4,10,10,1,1,0,0,0,0,0,0,0,0,0,0,0,0,0,0,0,0,0,0,0,0,0,0,0,0,0,0,0,0,0,0,0,0,0,0,0,0,0,0,0,0,0,0,0,0,0,0,0,0,0,0,0,0,0,0,0,0,0,0,0,0,0,0,0,0],"split_type":[0,0,0,0,0,0,0,0,0,0,0,0,0,0,0,0,0,0,0,0,0,0,0,0,0,0,0,0,0,0,0,0,0,0,0,0,0,0,0,0,0,0,0,0,0,0,0,0,0,0,0,0,0,0,0,0,0,0,0,0,0,0,0,0,0,0,0,0,0,0,0,0,0,0,0,0,0,0,0,0,0,0,0,0,0,0,0,0,0,0,0,0,0,0,0,0,0,0,0,0,0,0,0,0,0,0,0,0,0,0,0,0,0,0,0,0,0,0,0,0,0,0,0,0,0,0,0],"sum_hessian":[1.2531881E5,9.000756E4,3.5311246E4,4.4354664E4,4.56529E4,2.0589188E4,1.4722061E4,3.507362E4,9.281042E3,2.5734092E4,1.9918807E4,1.00011E4,1.0588088E4,7.227651E3,7.494409E3,1.3227932E4,2.184569E4,6.4096494E3,2.8713926E3,5.6131543E3,2.0120938E4,6.161849E3,1.3756958E4,8.778406E3,1.2226936E3,5.9429004E2,9.993798E3,4.3540293E3,2.8736216E3,3.3281406E3,4.1662686E3,6.6893154E3,6.538616E3,2.3183462E3,1.9527344E4,3.0711729E3,3.3384763E3,6.451362E2,2.2262563E3,3.6940608E3,1.9190936E3,6.377663E3,1.3743274E4,5.496281E3,6.655686E2,7.8246133E3,5.9323447E3,7.6244893E3,1.1539166E3,7.707497E2,4.5194388E2,4.567196E2,1.3757045E2,1.7182007E3,8.275598E3,1.9186438E3,2.4353855E3,1.4203261E2,2.731589E3,2.8759365E3,4.5220413E2,3.0961592E3,1.0701091E3,1.8854714E3,4.8038438E3,2.414607E3,4.1240093E3,6.8326373E2,1.6350825E3,1.7742365E4,1.7849778E3,2.2220178E3,8.491551E2,1.5304363E3,1.80804E3,3.8161432E2,2.6352194E2,1.8104583E3,4.1579803E2,1.8979176E3,1.7961432E3,3.954157E2,1.5236779E3,3.0363115E3,3.3413513E3,9.159441E3,4.583834E3,2.79074E3,2.7055405E3,3.0407318E2,3.614954E2,6.667052E3,1.1575614E3,1.4730059E3,4.459339E3,4.0939902E3,3.530499E3,7.304736E2,4.2344305E2,1.1263653E2,6.581132E2,1.630899E2,2.8885397E2,5.7102856E1,3.9961673E2,6.521065E1,7.23598E1,1.558904E3,1.592967E2,7.6351426E3,6.404551E2,5.1648216E1,1.8669956E3,2.2280568E2,2.2125798E3,7.8431366E1,6.3601242E1,2.3298394E3,4.0174973E2,1.2492373E3,1.6266993E3,4.0405228E2,4.8151863E1,2.2864265E3,8.0973285E2,5.796084E2,4.9050076E2],"tree_param":{"num_deleted":"0","num_feature":"19","num_nodes":"127","size_leaf_vector":"1"}},{"base_weights":[-1.8534518E-3,-4.5223987E-1,9.856508E-2,-6.821755E-1,-2.4255455E-1,-9.527955E-2,2.3176408E-1,-7.892169E-1,-3.0644342E-1,-3.7557167E-1,1.6081618E-1,-2.4984317E-1,2.010842E-1,4.9377836E-2,3.8541713E-1,-9.5120126E-1,-6.908962E-1,-7.7734016E-2,-5.3891E-1,-7.3140264E-1,-2.4469489E-1,3.2527867E-1,-1.3111122E-1,-1.470488E-1,-5.0780517E-1,4.5989445E-1,1.1016925E-1,2.2555064E-1,-1.0132644E-1,4.8772603E-1,1.8479733E-1,-8.889522E-1,-1.073452E0,-5.71364E-1,-8.9108354E-1,2.5353912E-1,-2.505533E-1,-6.229555E-1,-3.07035E-1,-4.2973597E-2,-8.016801E-1,-1.0875233E-1,-5.89855E-1,2.5272435E-1,6.0880375E-1,4.3721104E-1,-1.682777E-1,1.3246523E-1,-2.3177637E-1,-7.0836693E-1,-3.5561067E-1,5.244583E-1,4.360826E-2,-8.2683794E-2,2.5595066E-1,2.2133734E-2,3.6770636E-1,-1.8447447E-1,2.7905416E-1,2.9996836E-1,5.787409E-1,2.5505793E-1,-3.879134E-2,-8.228608E-2,-1.0346289E-1,-1.11743085E-1,-9.900433E-2,-4.4427585E-2,-8.837083E-2,-9.271257E-2,-3.791035E-2,7.992324E-3,5.6670427E-2,2.229475E-2,-3.0302396E-2,-4.3148085E-2,-7.013007E-2,-3.5577293E-2,3.972611E-2,-3.5802256E-2,3.511117E-2,-8.486629E-2,-6.1742533E-2,5.453928E-4,-4.5711096E-2,-7.242214E-2,-2.9007634E-2,6.4694323E-3,3.3889752E-2,9.075208E-2,4.554101E-2,5.4098725E-2,-7.145255E-2,-3.606138E-2,-9.9851E-3,4.085303E-4,4.8819568E-2,-4.4745635E-2,-9.063986E-3,-7.4040376E-2,2.1782978E-2,-1.4486919E-2,-5.1208276E-2,3.9632633E-2,6.2297106E-2,5.531609E-2,-1.7870327E-2,9.235458E-3,-3.7977275E-2,8.279911E-3,3.5674054E-2,1.2408993E-2,-1.5788328E-2,3.075569E-2,6.5547936E-2,-2.4451196E-2,1.4870827E-2,-2.8413904E-3,3.471814E-2,2.0455213E-2,7.046785E-2,6.503154E-2,4.2493653E-2,4.021255E-2,1.8969974E-2,-9.274972E-3,3.323079E-2],"categories":[],"categories_nodes":[],"categories_segments":[],"categories_sizes":[],"default_left":[0,0,0,0,0,0,0,0,0,0,0,0,0,0,0,0,0,0,0,0,0,0,0,0,0,0,0,0,0,0,0,0,0,0,0,0,0,0,0,0,0,0,0,0,0,0,0,0,0,0,0,0,0,0,0,0,0,0,0,0,0,0,0,0,0,0,0,0,0,0,0,0,0,0,0,0,0,0,0,0,0,0,0,0,0,0,0,0,0,0,0,0,0,0,0,0,0,0,0,0,0,0,0,0,0,0,0,0,0,0,0,0,0,0,0,0,0,0,0,0,0,0,0,0,0,0,0],"id":12,"left_children":[1,3,5,7,9,11,13,15,17,19,21,23,25,27,29,31,33,35,37,39,41,43,45,47,49,51,53,55,57,59,61,63,65,67,69,71,73,75,77,79,81,83,85,87,89,91,93,95,97,99,101,103,105,107,109,111,113,115,117,119,121,123,125,-1,-1,-1,-1,-1,-1,-1,-1,-1,-1,-1,-1,-1,-1,-1,-1,-1,-1,-1,-1,-1,-1,-1,-1,-1,-1,-1,-1,-1,-1,-1,-1,-1,-1,-1,-1,-1,-1,-1,-1,-1,-1,-1,-1,-1,-1,-1,-1,-1,-1,-1,-1,-1,-1,-1,-1,-1,-1,-1,-1,-1,-1,-1,-1],"loss_changes":[5.601213E3,1.0884468E3,2.614742E3,4.328662E2,6.3377795E2,1.8893701E3,1.6820894E3,1.3281396E2,1.2699107E2,4.134685E2,1.4069858E2,7.1875134E2,3.326147E2,7.287322E2,6.685737E2,2.3114502E1,1.2436841E2,6.9081985E1,2.2897217E1,1.1549768E2,3.047084E2,3.8400757E1,2.2388039E1,4.5912344E2,2.3551245E2,9.875122E1,2.942116E2,3.6591766E2,4.679318E2,3.685083E2,1.7287958E2,1.9381714E1,2.7902832E0,1.2942676E2,3.5618774E1,2.2453218E1,1.9763462E1,1.2727325E1,1.1028004E1,2.7719233E1,1.8232666E1,1.8544676E2,7.37088E1,2.4186302E1,1.7052887E1,8.170392E0,1.302364E1,2.0595982E2,4.528006E2,9.901123E1,1.4479968E2,3.991205E1,5.6119946E1,2.3433038E2,1.0397598E2,9.558101E1,1.2873248E2,2.4288351E2,5.5603592E1,2.71937E2,1.5967334E2,8.040704E1,5.2733963E1,0E0,0E0,0E0,0E0,0E0,0E0,0E0,0E0,0E0,0E0,0E0,0E0,0E0,0E0,0E0,0E0,0E0,0E0,0E0,0E0,0E0,0E0,0E0,0E0,0E0,0E0,0E0,0E0,0E0,0E0,0E0,0E0,0E0,0E0,0E0,0E0,0E0,0E0,0E0,0E0,0E0,0E0,0E0,0E0,0E0,0E0,0E0,0E0,0E0,0E0,0E0,0E0,0E0,0E0,0E0,0E0,0E0,0E0,0E0,0E0,0E0,0E0,0E0,0E0],"parents":[2147483647,0,0,1,1,2,2,3,3,4,4,5,5,6,6,7,7,8,8,9,9,10,10,11,11,12,12,13,13,14,14,15,15,16,16,17,17,18,18,19,19,20,20,21,21,22,22,23,23,24,24,25,25,26,26,27,27,28,28,29,29,30,30,31,31,32,32,33,33,34,34,35,35,36,36,37,37,38,38,39,39,40,40,41,41,42,42,43,43,44,44,45,45,46,46,47,47,48,48,49,49,50,50,51,51,52,52,53,53,54,54,55,55,56,56,57,57,58,58,59,59,60,60,61,61,62,62],"right_children":[2,4,6,8,10,12,14,16,18,20,22,24,26,28,30,32,34,36,38,40,42,44,46,48,50,52,54,56,58,60,62,64,66,68,70,72,74,76,78,80,82,84,86,88,90,92,94,96,98,100,102,104,106,108,110,112,114,116,118,120,122,124,126,-1,-1,-1,-1,-1,-1,-1,-1,-1,-1,-1,-1,-1,-1,-1,-1,-1,-1,-1,-1,-1,-1,-1,-1,-1,-1,-1,-1,-1,-1,-1,-1,-1,-1,-1,-1,-1,-1,-1,-1,-1,-1,-1,-1,-1,-1,-1,-1,-1,-1,-1,-1,-1,-1,-1,-1,-1,-1,-1,-1,-1,-1,-1,-1],"split_conditions":[1.83E2,1E0,1E0,2E0,1E0,2E0,1E0,7.1E1,6.2E1,6.8E1,6.1E1,3E0,4.5E1,2.69E2,7E1,5.3E1,4E0,1E0,3E0,2.4E1,1.38E2,2E0,2E0,4E1,1E0,3E0,2E0,1E0,4E0,3E1,3E0,1E0,1E0,1.5E2,4E0,1E0,3E1,6.6E1,1E0,1E0,4.3E1,4E0,1E0,2.8E1,2.5E1,3E0,3E0,4.97E2,2E0,4.96E2,6.6E1,3E0,1E0,1E0,3E0,2.44E2,4E0,4.99E2,1E0,1E0,6.2E1,1E0,2E0,-8.228608E-2,-1.0346289E-1,-1.11743085E-1,-9.900433E-2,-4.4427585E-2,-8.837083E-2,-9.271257E-2,-3.791035E-2,7.992324E-3,5.6670427E-2,2.229475E-2,-3.0302396E-2,-4.3148085E-2,-7.013007E-2,-3.5577293E-2,3.972611E-2,-3.5802256E-2,3.511117E-2,-8.486629E-2,-6.1742533E-2,5.453928E-4,-4.5711096E-2,-7.242214E-2,-2.9007634E-2,6.4694323E-3,3.3889752E-2,9.075208E-2,4.554101E-2,5.4098725E-2,-7.145255E-2,-3.606138E-2,-9.9851E-3,4.085303E-4,4.8819568E-2,-4.4745635E-2,-9.063986E-3,-7.4040376E-2,2.1782978E-2,-1.4486919E-2,-5.1208276E-2,3.9632633E-2,6.2297106E-2,5.531609E-2,-1.7870327E-2,9.235458E-3,-3.7977275E-2,8.279911E-3,3.5674054E-2,1.2408993E-2,-1.5788328E-2,3.075569E-2,6.5547936E-2,-2.4451196E-2,1.4870827E-2,-2.8413904E-3,3.471814E-2,2.0455213E-2,7.046785E-2,6.503154E-2,4.2493653E-2,4.021255E-2,1.8969974E-2,-9.274972E-3,3.323079E-2],"split_indices":[11,1,1,3,3,4,3,11,10,11,10,0,10,11,10,10,0,18,5,10,11,7,1,10,3,0,3,18,5,10,0,18,4,11,5,4,10,10,7,7,11,0,8,10,10,4,1,11,3,11,10,4,18,18,4,11,5,11,8,7,10,0,4,0,0,0,0,0,0,0,0,0,0,0,0,0,0,0,0,0,0,0,0,0,0,0,0,0,0,0,0,0,0,0,0,0,0,0,0,0,0,0,0,0,0,0,0,0,0,0,0,0,0,0,0,0,0,0,0,0,0,0,0,0,0,0,0],"split_type":[0,0,0,0,0,0,0,0,0,0,0,0,0,0,0,0,0,0,0,0,0,0,0,0,0,0,0,0,0,0,0,0,0,0,0,0,0,0,0,0,0,0,0,0,0,0,0,0,0,0,0,0,0,0,0,0,0,0,0,0,0,0,0,0,0,0,0,0,0,0,0,0,0,0,0,0,0,0,0,0,0,0,0,0,0,0,0,0,0,0,0,0,0,0,0,0,0,0,0,0,0,0,0,0,0,0,0,0,0,0,0,0,0,0,0,0,0,0,0,0,0,0,0,0,0,0,0],"sum_hessian":[1.2384427E5,2.25777E4,1.0126658E5,1.0767776E4,1.1809923E4,4.124417E4,6.0022402E4,8.37947E3,2.3883066E3,8.88127E3,2.9286538E3,2.710708E4,1.4137093E4,2.7445686E4,3.2576719E4,3.1617612E3,5.217708E3,1.2045546E3,1.1837521E3,2.3869592E3,6.49431E3,1.873225E3,1.055429E3,1.938428E4,7.7228022E3,3.6740388E3,1.0463054E4,1.2653403E4,1.4792282E4,2.157355E4,1.1003167E4,2.100484E3,1.0612772E3,3.2693987E3,1.9483094E3,4.1280038E2,7.917542E2,8.675961E2,3.161559E2,2.2124855E2,2.1657104E3,4.660192E3,1.8341183E3,1.4930448E3,3.8018018E2,6.41243E1,9.913046E2,4.508917E3,1.4875361E4,3.330379E3,4.3924233E3,3.1805E3,4.9353894E2,4.5045083E3,5.9585454E3,5.2056147E3,7.4477886E3,1.2139257E4,2.6530251E3,7.0448296E3,1.4528722E4,